tree
version=v4
num_class=1
num_tree_per_iteration=1
label_index=0
max_feature_idx=170
objective=binary sigmoid:1
feature_names=diff_L same_L same_SL samevar aa_dist ecto_aa_dist nt_dist ecto_nt_dist nogly_030 gly_s_030 gly_v_030 nogly_032 gly_s_032 gly_v_032 gly_both_032 nogly_033 gly_s_033 gly_v_033 gly_both_033 nogly_034 gly_v_034 nogly_057 gly_s_057 gly_v_057 p027_same p027_btprop p027_flex p027_hydro p027_pI p027_surf p027_s_nonpolar_v_nonpolar p028_same p028_btprop p028_flex p028_hydro p028_pI p028_surf p028_s_nonpolar_v_nonpolar p029_same p029_btprop p029_flex p029_hydro p029_pI p029_surf p029_s_nonpolar_v_nonpolar p029_s_nonpolar_v_polar p029_s_polar_v_nonpolar p032_same p032_btprop p032_charge p032_flex p032_hydro p032_pI p032_surf p032_s_acidic_v_polar p032_s_nonpolar_v_polar p032_s_polar_v_acidic p032_s_polar_v_polar p033_same p033_btprop p033_charge p033_flex p033_hydro p033_pI p033_surf p033_s_polar_v_acidic p033_s_polar_v_polar p034_same p034_btprop p034_flex p034_hydro p034_pI p034_surf p034_s_nonpolar_v_polar p034_s_polar_v_nonpolar p034_s_polar_v_polar p047_same p047_btprop p047_flex p047_hydro p047_pI p047_surf p047_s_nonpolar_v_nonpolar p054_same p054_s_acidic_v_gap p055_same p055_s_nonpolar_v_gap p056_same p056_s_nonpolar_v_gap p057_same p057_btprop p057_charge p057_flex p057_hydro p057_pI p057_surf p057_s_basic_v_polar p057_s_nonpolar_v_polar p057_s_polar_v_basic p057_s_polar_v_gap p057_s_polar_v_nonpolar p058_same p058_btprop p058_charge p058_flex p058_hydro p058_pI p058_surf p058_s_acidic_v_acidic p058_s_acidic_v_polar p058_s_basic_v_acidic p058_s_polar_v_acidic p058_s_polar_v_basic p058_s_polar_v_polar p059_same p059_btprop p059_charge p059_flex p059_hydro p059_pI p059_surf p059_s_basic_v_basic p059_s_basic_v_polar p059_s_polar_v_basic p061_same p061_btprop p061_charge p061_flex p061_hydro p061_pI p061_surf p061_s_acidic_v_polar p063_same p063_btprop p063_flex p063_hydro p063_pI p063_surf p063_s_nonpolar_v_polar p064_same p064_btprop p064_flex p064_hydro p064_pI p064_surf p064_s_nonpolar_v_nonpolar p101_same p101_btprop p101_flex p101_hydro p101_pI p101_surf p101_s_nonpolar_v_polar p101_s_polar_v_nonpolar p102_same p102_btprop p102_flex p102_hydro p102_pI p102_surf p102_s_nonpolar_v_polar p102_s_polar_v_nonpolar p104_same p104_btprop p104_charge p104_flex p104_hydro p104_pI p104_surf p104_s_basic_v_nonpolar p104_s_nonpolar_v_basic
feature_infos=[0:1] [0:1] [0:1] none [0:0.16500000000000001] [0:0.25] [0:0.20485768090242701] [0:0.29125109461375098] [0:1] none [0:1] [0:1] [0:1] [0:1] [0:1] [0:1] [0:1] [0:1] [0:1] [0:1] [0:1] [0:1] [0:1] [0:1] [0:1] [-0.14999999999999999:0.14999999999999999] [-0.029000000000000001:0.029000000000000001] [-2.3999999999999999:2.3999999999999999] [-0.040000000000000001:0.040000000000000001] [-40:40] [0:1] [0:1] [-1.0600000000000001:1.0600000000000001] [-0.14399999999999999:0.14399999999999999] [-5.4000000000000004:5.4000000000000004] [-0.31999999999999901:0.31999999999999901] [-25:25] [0:1] [0:1] [-0.39000000000000001:0.39000000000000001] [-0.086999999999999994:0.086999999999999994] [-4.9000000000000004:4.9000000000000004] [-0.34000000000000002:0.34000000000000002] [-40:40] [0:1] none [0:1] [0:1] [-0.090000000000000094:0.13] [-1:1] [-0.048000000000000001:0.081000000000000003] [-2.7000000000000002:3.1000000000000001] [-2.9100000000000001:3.2000000000000002] [-85:45] [0:1] [0:1] none [0:1] [0:1] [-0.059999999999999998:0.029999999999999999] [0:1] [-0.048000000000000001:0] [-2.7000000000000002:0] [-0.27000000000000002:2.6400000000000001] [0:45] [0:1] [0:1] [0:1] [-0.13:0.13] [-0.081000000000000003:0.081000000000000003] [-3.1000000000000001:3.1000000000000001] [-0.56000000000000005:0.56000000000000005] [-85:85] none [0:1] [0:1] [0:1] [-0.029999999999999999:0.029999999999999999] [-0.097000000000000003:0.097000000000000003] [-0.69999999999999996:0.69999999999999996] [-0.039999999999999099:0.039999999999999099] [-5:5] [0:1] none none none none none none [0:1] [-0.71999999999999997:0.71999999999999997] [-1:1] [-0.109:0.17199999999999999] [-6.2999999999999998:5.7000000000000002] [-4.3300000000000001:5.3499999999999996] [-85:110] [0:1] none none none none [0:1] [-0.56999999999999995:0.51000000000000001] [-2:2] [-0.048000000000000001:0.034000000000000002] [-0.40000000000000002:0.40000000000000002] [-6.5199999999999996:6.9699999999999998] [-40:50] none none [0:1] [0:1] none none [0:1] [-0.41999999999999998:0.51000000000000001] [-1:1] [-0.066000000000000003:0.20599999999999999] [-3.7000000000000002:3.7000000000000002] [-5.3499999999999996:5.0800000000000001] [-110:110] [0:1] [0:1] [0:1] [0:1] [0:0.090000000000000094] [-1:0] [0:0.0040000000000000001] [-2.7000000000000002:0] [-2.9100000000000001:0] [0:35] [0:1] none none none none none none none none none none none none none none [0:1] [-0.47999999999999998:0.47999999999999998] [-0.106:0.106] [-4.0999999999999996:4.0999999999999996] [-0.17999999999999999:0.17999999999999999] [-20:20] none [0:1] [0:1] [-0.55000000000000004:0.55000000000000004] [-0.115:0.034000000000000002] [-5.5:5.5] [-0.29999999999999999:0.29999999999999999] [-75:100] [0:1] none [0:1] [-0.55000000000000004:0.55000000000000004] [-1:1] [-0.014999999999999999:0.078] [-4.0999999999999996:4.0999999999999996] [-4.79:4.79] [-150:150] [0:1] [0:1]
tree_sizes=876 883 884 997 996 882 999 1002 781 879 998 777 1001 998 784 788 886 789 888 894 899 898 894 780 893 887 896 895 897 794 890 892 895 1000 887 896 896 895 783 897 898 898 780 904 784 898 786 794 896 901 898 786 785 902 786 999 1012 996 998 787 785 789 898 904 997 794 795 789 789 796 786 895 1002 793 793 900 890 901 790 892 898 902 792 895 895 795 898 900 790 910 901 797 904 906 908 901 796 901 897 903

Tree=0
num_leaves=7
num_cat=0
split_feature=31 57 6 11 6 7
split_gain=25.0896 23.7128 7.61861 7.13363 6.04795 12.0362
threshold=1.0000000180025095e-35 1.0000000180025095e-35 0.14748472978528002 1.0000000180025095e-35 0.12183393458661052 0.15606528627556901
decision_type=2 2 2 2 2 2
left_child=2 3 -1 4 -2 -6
right_child=1 -3 -4 -5 5 -7
leaf_value=-0.096108020764053642 -0.017491907808591493 -0.14243974433936257 -0.17448875613581682 0.016712734695302489 -0.11840298549202186 -0.014243697153545412
leaf_weight=5.7412066608667356 9.235854193568235 6.2404420226812354 6.7396773844957352 5.491588979959487 6.2404420226812345 4.992353618144989
leaf_count=23 37 25 27 22 25 20
internal_value=-0.0782522 -0.0549261 -0.138434 -0.0338891 -0.0474652 -0.07211
internal_weight=44.6816 32.2007 12.4809 25.9602 20.4686 11.2328
internal_count=179 129 50 104 82 45
is_linear=0
shrinkage=1


Tree=1
num_leaves=7
num_cat=0
split_feature=31 57 6 11 6 7
split_gain=22.7059 21.4218 6.95646 6.42026 5.44331 10.8586
threshold=1.0000000180025095e-35 1.0000000180025095e-35 0.14748472978528002 1.0000000180025095e-35 0.12183393458661052 0.15606528627556901
decision_type=2 2 2 2 2 2
left_child=2 3 -1 4 -2 -6
right_child=1 -3 -4 -5 5 -7
leaf_value=-0.016976565933848005 0.05763574198501778 -0.061199403752748863 -0.091994317171726875 0.090079762542363231 -0.038220401862553655 0.060715249101935959
leaf_weight=5.7367426455020887 9.2492926269769722 6.2184050679206839 6.6988813877105713 5.4996161162853232 6.2281459569931013 4.9997463822364807
leaf_count=23 37 25 27 22 25 20
internal_value=-4.46616e-06 0.0221601 -0.0573875 0.042115 0.0292329 0.00583534
internal_weight=44.6308 32.1952 12.4356 25.9768 20.4772 11.2279
internal_count=179 129 50 104 82 45
is_linear=0
shrinkage=0.05


Tree=2
num_leaves=7
num_cat=0
split_feature=31 57 115 11 6 7
split_gain=20.5969 19.3922 6.44294 5.82318 4.90996 9.8121
threshold=1.0000000180025095e-35 1.0000000180025095e-35 0.12000000000000001 1.0000000180025095e-35 0.12183393458661052 0.15606528627556901
decision_type=2 2 2 2 2 2
left_child=2 3 -1 4 -2 -6
right_child=1 -3 -4 -5 5 -7
leaf_value=-0.084334857042052055 0.054771891906331666 -0.058454935349367798 -0.010663520941713061 0.085818754742854678 -0.036407167365977718 0.057707988371533403
leaf_weight=7.415064334869383 9.2462745755910927 6.1856500804424277 4.948161244392395 5.4843482971191397 6.2118265777826291 4.9973013997077942
leaf_count=30 37 25 20 22 25 20
internal_value=-8.31433e-06 0.0210968 -0.0548492 0.0400669 0.0278002 0.00555165
internal_weight=44.4886 32.1254 12.3632 25.9398 20.4554 11.2091
internal_count=179 129 50 104 82 45
is_linear=0
shrinkage=0.05


Tree=3
num_leaves=8
num_cat=0
split_feature=31 57 6 11 6 117 117
split_gain=18.7027 17.5861 6.44601 5.31669 4.59253 6.36387 0.763644
threshold=1.0000000180025095e-35 1.0000000180025095e-35 0.14748472978528002 1.0000000180025095e-35 0.093584405414166169 -0.042499999999999989 -1.0000000180025095e-35
decision_type=2 2 2 2 2 2 2
left_child=2 3 -1 4 -2 -6 -7
right_child=1 -3 -4 -5 5 6 -8
leaf_value=-0.013588097801663455 0.066836650266834358 -0.055919231217456913 -0.086209686721584147 0.082064639744319573 0.058866780508401821 -0.024150567868745341 0.0032330038514106932
leaf_weight=5.7089911848306638 5.2381933629512849 6.1438836157321921 6.5744723677635193 5.4493024349212638 4.978845715522767 4.9624726176261902 5.2282834947109187
leaf_count=23 21 25 27 22 20 20 21
internal_value=-1.07328e-05 0.0201207 -0.0524573 0.0381885 0.0264727 0.0125346 -0.0101017
internal_weight=44.2844 32.001 12.2835 25.8571 20.4078 15.1696 10.1908
internal_count=179 129 50 104 82 61 41
is_linear=0
shrinkage=0.05


Tree=4
num_leaves=8
num_cat=0
split_feature=31 57 102 11 6 117 117
split_gain=17.0182 15.9607 6.20948 4.89033 4.17308 5.75367 0.690606
threshold=1.0000000180025095e-35 1.0000000180025095e-35 -1.0000000180025095e-35 1.0000000180025095e-35 0.093584405414166169 -0.042499999999999989 -1.0000000180025095e-35
decision_type=2 2 2 2 2 2 2
left_child=2 3 -1 4 -2 -6 -7
right_child=1 -3 -4 -5 5 6 -8
leaf_value=-0.08612823373639017 0.063773867249350677 -0.05356375236215169 -0.014712068408753359 0.078727458270160103 0.056019521959296159 -0.022980604296259755 0.0030715243964565993
leaf_weight=6.0663389414548874 5.2158092558384039 6.0946062207221976 6.1086246371269208 5.3975512385368338 4.9704887717962309 4.9545619636774099 5.2280062586069
leaf_count=25 21 25 25 22 20 20 21
internal_value=-1.3448e-05 0.0192009 -0.0502961 0.0364122 0.025199 0.0119213 -0.00960474
internal_weight=44.036 31.861 12.175 25.7664 20.3689 15.1531 10.1826
internal_count=179 129 50 104 82 61 41
is_linear=0
shrinkage=0.05


Tree=5
num_leaves=7
num_cat=0
split_feature=31 57 6 104 6 4
split_gain=15.4916 14.5042 6.02528 4.67629 9.56953 0.0475845
threshold=1.0000000180025095e-35 1.0000000180025095e-35 0.14748472978528002 -0.032499999999999994 0.12183393458661052 0.010153061224489801
decision_type=2 2 2 2 2 2
left_child=2 3 -1 -2 5 -5
right_child=1 -3 -4 4 -6 -7
leaf_value=-0.010707563490905854 0.072818887787220538 -0.051364968659593647 -0.081496924851765309 0.057670304876741602 -0.016481273954086644 0.051020346235142504
leaf_weight=5.6717548221349698 6.1399755626916912 6.0391355305910102 6.3954299986362457 4.9054987579584175 8.641665577888487 5.9565791636705399
leaf_count=23 25 25 27 20 35 24
internal_value=-1.485e-05 0.0183471 -0.0482249 0.0347644 0.0227845 0.0540236
internal_weight=43.75 31.6829 12.0672 25.6437 19.5037 10.8621
internal_count=179 129 50 104 79 44
is_linear=0
shrinkage=0.05


Tree=6
num_leaves=8
num_cat=0
split_feature=117 31 57 117 104 7 16
split_gain=14.6224 20.9717 11.7602 7.59807 2.7259 4.04258 0.14323
threshold=-0.053499999999999992 1.0000000180025095e-35 1.0000000180025095e-35 -0.012499999999999997 -0.030499999999999996 0.061911247506873261 1.0000000180025095e-35
decision_type=2 2 2 2 2 2 2
left_child=-1 6 3 -3 -5 -6 -2
right_child=1 2 -4 4 5 -7 -8
leaf_value=0.068282691917510727 -0.070365733459922433 -0.020605002905723681 -0.055484772473951852 0.075974567035020313 0.060276032869947385 -0.00098000095806879831 -0.082677496333949288
leaf_weight=6.638286128640174 4.6995046436786634 6.1830827593803432 5.5003362745046607 4.8557709157466897 5.6094733625650406 5.1811256408691406 4.7499334812164307
leaf_count=27 20 25 23 20 23 21 20
internal_value=-1.72652e-05 -0.0123447 0.00985617 0.02632 0.0448637 0.0308638 -0.0765545
internal_weight=43.4175 36.7792 27.3298 21.8295 15.6464 10.7906 9.44944
internal_count=179 152 112 89 64 44 40
is_linear=0
shrinkage=0.05


Tree=7
num_leaves=8
num_cat=0
split_feature=117 31 57 117 11 7 102
split_gain=13.2581 19.3051 10.7223 6.91754 2.69923 3.32191 0.137489
threshold=-0.053499999999999992 1.0000000180025095e-35 1.0000000180025095e-35 -0.012499999999999997 1.0000000180025095e-35 0.061911247506873261 -0.034999999999999989
decision_type=2 2 2 2 2 2 2
left_child=-1 6 3 -3 5 -5 -2
right_child=1 2 -4 4 -6 -7 -8
leaf_value=0.065087832188774272 -0.080174482748287063 -0.019608195491752911 -0.053379454913147231 0.05675279397032882 0.072257262323362603 -2.6405466385295179e-05 -0.067999737058168155
leaf_weight=6.6164316684007636 4.6641488373279572 6.1728015542030361 5.4331244826316825 5.1095512360334414 5.2204448729753485 5.1952526867389679 4.6118812263011915
leaf_count=27 20 25 23 21 22 21 20
internal_value=-2.08904e-05 -0.0118534 0.0094358 0.0251646 0.0429661 0.0281271 -0.0741214
internal_weight=43.0236 36.4072 27.1312 21.6981 15.5252 10.3048 9.27603
internal_count=179 152 112 89 64 42 40
is_linear=0
shrinkage=0.05


Tree=8
num_leaves=6
num_cat=0
split_feature=104 2 119 48 6
split_gain=12.2805 10.847 10.9635 9.09916 5.44806
threshold=1.0000000180025095e-35 1.0000000180025095e-35 -0.64499999999999991 0.05000000000000001 0.14377687632032102
decision_type=2 2 2 2 2
left_child=1 2 3 -1 -4
right_child=-2 -3 4 -5 -6
leaf_value=-0.020218336427550415 -0.051550434361688817 0.070614350276420088 0.0032306654117706052 0.063290883930151837 -0.061947311497572655
leaf_weight=5.3352912962436667 9.0938548743724805 6.74826656281948 5.7326843440532702 8.3936841040849668 7.2745978832244873
leaf_count=22 39 28 24 35 31
internal_value=-2.3865e-05 0.0139699 -0.000327212 0.0308379 -0.0332215
internal_weight=42.5784 33.4845 26.7363 13.729 13.0073
internal_count=179 140 112 57 55
is_linear=0
shrinkage=0.05


Tree=9
num_leaves=7
num_cat=0
split_feature=31 57 6 11 6 7
split_gain=11.3268 10.365 4.78715 3.69962 2.98744 6.0796
threshold=1.0000000180025095e-35 1.0000000180025095e-35 0.14748472978528002 1.0000000180025095e-35 0.12183393458661052 0.15606528627556901
decision_type=2 2 2 2 2 2
left_child=2 3 -1 4 -2 -6
right_child=1 -3 -4 -5 5 -7
leaf_value=-0.0091796894500828941 0.041539302682160814 -0.044452635916438776 -0.073865656039553904 0.068013699395709365 -0.030510931753420817 0.044517963388264775
leaf_weight=5.5578491091728193 8.9363621026277631 5.7933695912361136 5.8927552402019501 5.0486621409654608 6.1214593052864057 4.8305516690015793
leaf_count=23 37 25 27 22 25 20
internal_value=-2.273e-05 0.0157932 -0.0424686 0.0297896 0.0200864 0.00258171
internal_weight=42.181 30.7304 11.4506 24.937 19.8884 10.952
internal_count=179 129 50 104 82 45
is_linear=0
shrinkage=0.05


Tree=10
num_leaves=8
num_cat=0
split_feature=117 31 57 117 104 7 102
split_gain=10.8075 15.9636 8.4453 5.22881 2.42483 3.41775 0.13369
threshold=-0.053499999999999992 1.0000000180025095e-35 1.0000000180025095e-35 -0.012499999999999997 -0.030499999999999996 0.061911247506873261 -0.034999999999999989
decision_type=2 2 2 2 2 2 2
left_child=-1 6 3 -3 -5 -6 -2
right_child=1 2 -4 4 5 -7 -8
leaf_value=0.059277503148298154 -0.075466902355540114 -0.016482133478332193 -0.04839861066447157 0.068549920651509597 0.052796559099305342 -0.0043453748140506723 -0.063130846011737171
leaf_weight=6.4879229068756095 4.4215398281812668 6.1189098656177547 5.2376869618892661 4.6067717671394357 5.383824959397316 5.0915156304836273 4.3639336824417096
leaf_count=27 20 25 23 20 23 21 20
internal_value=-2.45397e-05 -0.0109474 0.00845606 0.0225019 0.038318 0.0250229 -0.0693393
internal_weight=41.7121 35.2242 26.4387 21.201 15.0821 10.4753 8.78547
internal_count=179 152 112 89 64 44 40
is_linear=0
shrinkage=0.05


Tree=11
num_leaves=6
num_cat=0
split_feature=104 6 48 6 2
split_gain=9.95076 9.05138 10.4176 6.84484 2.9859
threshold=1.0000000180025095e-35 0.11767588849315051 0.09500000000000007 0.14377687632032102 1.0000000180025095e-35
decision_type=2 2 2 2 2
left_child=1 4 3 -3 -1
right_child=-2 2 -4 -5 -6
leaf_value=0.023453930928477335 -0.047386445427537977 0.0036255150469915107 0.046476370681943921 -0.06276793058119276 0.07811398480510863
leaf_weight=4.745927080512045 8.7386903166770917 8.2789554446935671 6.8489129096269599 7.3092760890722266 5.2760117948055267
leaf_count=20 39 34 30 33 23
internal_value=-2.70539e-05 0.0127231 -0.00492309 -0.0275062 0.0522295
internal_weight=41.1978 32.4591 22.4371 15.5882 10.0219
internal_count=179 140 97 67 43
is_linear=0
shrinkage=0.05


Tree=12
num_leaves=8
num_cat=0
split_feature=117 31 57 117 11 7 16
split_gain=9.41913 13.9577 7.1996 4.62018 2.12195 2.48315 0.124422
threshold=-0.053499999999999992 1.0000000180025095e-35 1.0000000180025095e-35 -0.012499999999999997 1.0000000180025095e-35 0.061911247506873261 1.0000000180025095e-35
decision_type=2 2 2 2 2 2 2
left_child=-1 6 3 -3 5 -5 -2
right_child=1 2 -4 4 -6 -7 -8
leaf_value=0.055824219228822386 -0.060260959722773379 -0.01581538304965115 -0.045502296144450713 0.048391900374737506 0.063297098048275574 -0.0015216439109369054 -0.072427791646208994
leaf_weight=6.368626967072486 4.1796214133501035 6.1026243120431927 5.0990824103355399 4.8564689606428164 4.7809712737798682 5.1174150258302689 4.2257265001535416
leaf_count=27 20 25 23 21 22 21 20
internal_value=-2.67912e-05 -0.0103782 0.00775577 0.0207759 0.0359101 0.0227822 -0.0663777
internal_weight=40.7305 34.3619 25.9566 20.8575 14.7549 9.97388 8.40535
internal_count=179 152 112 89 64 42 40
is_linear=0
shrinkage=0.05


Tree=13
num_leaves=8
num_cat=0
split_feature=117 31 57 117 104 7 16
split_gain=8.599 12.9621 6.58771 4.22684 2.2025 2.82699 0.121501
threshold=-0.053499999999999992 1.0000000180025095e-35 1.0000000180025095e-35 -0.012499999999999997 -0.030499999999999996 0.061911247506873261 1.0000000180025095e-35
decision_type=2 2 2 2 2 2 2
left_child=-1 6 3 -3 -5 -6 -2
right_child=1 2 -4 4 5 -7 -8
leaf_value=0.053591434826022459 -0.058692011639291643 -0.015055851424003761 -0.043929476848790908 0.064183816064188215 0.047799524237386773 -0.0048572091433059421 -0.070875991163152227
leaf_weight=6.3039152771234503 4.0793412774801237 6.0902841389179256 5.0196075439453116 4.3827100098133096 5.1624647825956345 5.0348242074251175 4.1053853183984756
leaf_count=27 20 25 23 20 23 21 20
internal_value=-2.88229e-05 -0.0100073 0.00745056 0.0199278 0.034541 0.0218007 -0.0648034
internal_weight=40.1785 33.8746 25.6899 20.6703 14.58 10.1973 8.18473
internal_count=179 152 112 89 64 44 40
is_linear=0
shrinkage=0.05


Tree=14
num_leaves=6
num_cat=0
split_feature=104 2 119 48 6
split_gain=7.94857 7.67214 6.88449 6.21181 3.72927
threshold=1.0000000180025095e-35 1.0000000180025095e-35 -0.64499999999999991 0.05000000000000001 0.14377687632032102
decision_type=2 2 2 2 2
left_child=1 2 3 -1 -4
right_child=-2 -3 4 -5 -6
leaf_value=-0.0180639940652602 -0.043397423024108164 0.061208029321893953 0.0025677192270557362 0.052683625993388994 -0.053184312968515557
leaf_weight=5.1535220146179217 8.3416532427072507 6.2260022908449164 5.4849535077810305 7.7965425699949265 6.6191518604755402
leaf_count=22 39 28 24 35 31
internal_value=-3.07711e-05 0.011534 -0.000810016 0.0245294 -0.0279204
internal_weight=39.6218 31.2802 25.0542 12.9501 12.1041
internal_count=179 140 112 57 55
is_linear=0
shrinkage=0.05


Tree=15
num_leaves=6
num_cat=0
split_feature=104 2 119 48 93
split_gain=7.2746 7.07886 6.2829 5.70747 3.53304
threshold=1.0000000180025095e-35 1.0000000180025095e-35 -0.64499999999999991 0.05000000000000001 1.0000000180025095e-35
decision_type=2 2 2 2 2
left_child=1 2 3 -1 -4
right_child=-2 -3 4 -5 -6
leaf_value=-0.017190777154425196 -0.041803772158617254 0.059322288471192086 -0.0064206509285910183 0.050875334852461401 -0.062963728211303666
leaf_weight=5.1447605937719363 8.2295621037483198 6.1057873219251624 7.6632433682680148 7.6731404662132263 4.3201146721839905
leaf_count=22 39 28 35 35 20
internal_value=-2.81026e-05 0.0110954 -0.000777476 0.0235554 -0.026805
internal_weight=39.1366 30.907 24.8013 12.8179 11.9834
internal_count=179 140 112 57 55
is_linear=0
shrinkage=0.05


Tree=16
num_leaves=7
num_cat=0
split_feature=31 121 57 11 6 7
split_gain=7.11067 6.1061 5.84833 2.60541 1.93899 3.11886
threshold=1.0000000180025095e-35 1.0000000180025095e-35 1.0000000180025095e-35 1.0000000180025095e-35 0.12183393458661052 0.15124685706193652
decision_type=2 2 2 2 2 2
left_child=1 -1 3 4 -2 -6
right_child=2 -3 -4 -5 5 -7
leaf_value=-0.067566208622527935 0.033418304665304883 0.011679707451237078 -0.034757437132497598 0.058185620590534753 -0.028891687395652479 0.025906033823141758
leaf_weight=6.099712207913397 8.3604953885078519 4.0413159132003784 5.2771636396646491 4.4011806696653357 4.7387903183698636 5.7441548258066177
leaf_count=32 37 18 25 22 20 25
internal_value=-2.5298e-05 -0.0359858 0.0127606 0.0235485 0.0154584 0.00113485
internal_weight=38.6628 10.141 28.5218 23.2446 18.8434 10.4829
internal_count=179 50 129 104 82 45
is_linear=0
shrinkage=0.05


Tree=17
num_leaves=6
num_cat=0
split_feature=7 117 48 61 115
split_gain=6.56019 9.9289 6.76736 5.02841 1.31405
threshold=0.05436527576918606 -0.053499999999999992 0.09500000000000007 -1.0000000180025095e-35 -1.0000000180025095e-35
decision_type=2 2 2 2 2
left_child=-1 -2 3 -3 -5
right_child=1 2 -4 4 -6
leaf_value=0.043020726128330383 0.047604126697002369 -0.0063693881862563811 0.034267295802285221 -0.035358709854308813 -0.069196864284379309
leaf_weight=7.1830837875604621 6.0223469287157085 8.6193930506706309 4.1619201004505149 4.637870848178868 7.5226819068193356
leaf_count=33 27 39 20 21 39
internal_value=-2.90347e-05 -0.0100157 -0.0239283 -0.0355841 -0.0562914
internal_weight=38.1473 30.9642 24.9419 20.7799 12.1606
internal_count=179 146 119 99 60
is_linear=0
shrinkage=0.05


Tree=18
num_leaves=7
num_cat=0
split_feature=31 121 57 104 6 114
split_gain=6.23549 5.42119 4.90845 2.3373 4.16216 0.136397
threshold=1.0000000180025095e-35 1.0000000180025095e-35 1.0000000180025095e-35 -0.032499999999999994 0.12183393458661052 1.0000000180025095e-35
decision_type=2 2 2 2 2 2
left_child=1 -1 3 -2 5 -5
right_child=2 -3 -4 4 -6 -7
leaf_value=-0.065645110898995621 0.05189468596826851 0.010107890658407878 -0.032250384000755125 0.029400955266579216 -0.012794810073325164 0.041399486911513093
leaf_weight=5.7353684753179532 5.0655471533536938 4.0151375085115433 5.1164918392896643 4.414619937539106 8.1751968711614591 5.1106001883745193
leaf_count=32 25 18 25 19 35 25
internal_value=-3.39596e-05 -0.034451 0.0120017 0.021947 0.0133765 0.0358386
internal_weight=37.633 9.75051 27.8825 22.766 17.7004 9.52522
internal_count=179 50 129 104 79 44
is_linear=0
shrinkage=0.05


Tree=19
num_leaves=7
num_cat=0
split_feature=31 121 57 104 6 114
split_gain=5.73967 5.1348 4.48454 2.18719 3.80435 0.133852
threshold=1.0000000180025095e-35 1.0000000180025095e-35 1.0000000180025095e-35 -0.032499999999999994 0.12183393458661052 1.0000000180025095e-35
decision_type=2 2 2 2 2 2
left_child=1 -1 3 -2 5 -5
right_child=2 -3 -4 4 -6 -7
leaf_value=-0.064658523455192254 0.050408504245867153 0.0095970975433444499 -0.031062631372363998 0.028093258999700357 -0.012169143991721171 0.040046086534380271
leaf_weight=5.5367712378501874 4.9569319188594845 4.0173370689153671 5.0482914447784415 4.3897521346807533 8.1659819185733777 5.0214481502771378
leaf_count=32 25 18 25 19 35 25
internal_value=-3.62874e-05 -0.0334353 0.0115326 0.0210752 0.0128029 0.0344708
internal_weight=37.1365 9.55411 27.5824 22.5341 17.5772 9.4112
internal_count=179 50 129 104 79 44
is_linear=0
shrinkage=0.05


Tree=20
num_leaves=7
num_cat=0
split_feature=117 37 7 61 107 102
split_gain=5.47959 8.94923 4.1459 5.70247 3.08437 0.128502
threshold=-0.053499999999999992 1.0000000180025095e-35 0.05436527576918606 -1.0000000180025095e-35 1.0000000180025095e-35 -0.034999999999999989
decision_type=2 2 2 2 2 2
left_child=-1 2 -2 -4 -5 -3
right_child=1 5 3 4 -6 -7
leaf_value=0.044493538492638263 0.038792188489187425 -0.065074435108916848 0.022172234592174385 -0.0051578961848431533 -0.065057469277608179 -0.051477697049760685
leaf_weight=5.812191128730773 6.8972127139568391 3.5185787081718445 8.38240738213063 4.2040829509496618 4.3966886401176453 3.4333379566669455
leaf_count=27 33 20 39 19 21 20
internal_value=-3.85292e-05 -0.00843326 0.00610095 -0.00717563 -0.0357784 -0.0583594
internal_weight=36.6445 30.8323 23.8804 16.9832 8.60077 6.95192
internal_count=179 152 112 79 40 40
is_linear=0
shrinkage=0.05


Tree=21
num_leaves=7
num_cat=0
split_feature=117 37 7 61 107 16
split_gain=5.01989 8.35577 3.7979 5.19818 2.89556 0.128805
threshold=-0.053499999999999992 1.0000000180025095e-35 0.05436527576918606 -1.0000000180025095e-35 1.0000000180025095e-35 1.0000000180025095e-35
decision_type=2 2 2 2 2 2
left_child=-1 2 -2 -4 -5 -3
right_child=1 5 3 4 -6 -7
leaf_value=0.042873354801475833 0.037387735894007894 -0.05030289844542242 0.021098129839293642 -0.004902864733553002 -0.063276835254981775 -0.064132728223704291
leaf_weight=5.7323001176118842 6.8009728640317979 3.3391907513141623 8.3690430819988322 4.201691761612885 4.2969359755516052 3.395683616399765
leaf_count=27 33 20 39 19 21 20
internal_value=-4.52513e-05 -0.00813715 0.00584517 -0.00687265 -0.0344169 -0.0572758
internal_weight=36.1358 30.4035 23.6686 16.8677 8.49863 6.73487
internal_count=179 152 112 79 40 40
is_linear=0
shrinkage=0.05


Tree=22
num_leaves=7
num_cat=0
split_feature=117 37 6 6 119 102
split_gain=4.59986 7.80616 3.53234 2.39507 1.95279 0.130687
threshold=-0.053499999999999992 1.0000000180025095e-35 0.093584405414166169 0.13588465555016002 -1.0000000180025095e-35 -0.034999999999999989
decision_type=2 2 2 2 2 2
left_child=-1 2 -2 -4 -5 -3
right_child=1 5 3 4 -6 -7
leaf_value=0.04132202901113792 0.0409682553894197 -0.063280867608296473 -0.025560567104673072 0.032667977476564053 -0.011362324129472306 -0.049124165483842262
leaf_weight=5.6521940082311621 5.4264902323484483 3.2792752236127853 7.9515524953603771 5.1511383801698747 4.9266895800828854 3.2418616265058509
leaf_count=27 28 20 35 25 24 20
internal_value=-5.17196e-05 -0.00785278 0.00560057 -0.00504441 0.0111431 -0.0562431
internal_weight=35.6292 29.977 23.4559 18.0294 10.0778 6.52114
internal_count=179 152 112 84 49 40
is_linear=0
shrinkage=0.05


Tree=23
num_leaves=6
num_cat=0
split_feature=4 114 4 117 7
split_gain=4.21445 5.96144 2.54729 2.37064 4.07926
threshold=0.092500000000000013 1.0000000180025095e-35 0.13892857142857154 -0.042499999999999989 0.05436527576918606
decision_type=2 2 2 2 2
left_child=3 2 -2 -1 -5
right_child=1 -3 -4 4 -6
leaf_value=0.049676448958878454 -0.013588750819629181 -0.057929596256584184 0.037477384579704932 0.035424307713324464 -0.018353352705926303
leaf_weight=4.1672295331954983 7.0308032631874102 6.0334281623363486 3.7416439950466156 6.6191266626119596 7.5467727929353714
leaf_count=20 37 36 19 33 34
internal_value=-5.24858e-05 -0.0181381 0.00414829 0.0165265 0.00677468
internal_weight=35.139 16.8059 10.7724 18.3331 14.1659
internal_count=179 92 56 87 67
is_linear=0
shrinkage=0.05


Tree=24
num_leaves=7
num_cat=0
split_feature=31 121 57 104 6 2
split_gain=4.08713 4.00183 3.29476 1.8565 2.68134 0.653006
threshold=1.0000000180025095e-35 1.0000000180025095e-35 1.0000000180025095e-35 -0.032499999999999994 0.12183393458661052 1.0000000180025095e-35
decision_type=2 2 2 2 2 2
left_child=1 -1 3 -2 5 -5
right_child=2 -3 -4 4 -6 -7
leaf_value=-0.061118157758768922 0.046172192717521793 0.007987753947919363 -0.027841370828882134 0.014236455222325653 -0.010504960546745589 0.041595401224283964
leaf_weight=4.6890030056238157 4.6077515929937389 3.7867405712604523 4.7833371907472602 3.9362726211547905 8.0505239218473417 4.8910504132509232
leaf_count=32 25 18 25 18 35 26
internal_value=-5.31594e-05 -0.0302434 0.00968782 0.0180429 0.0103635 0.0293955
internal_weight=34.7447 8.47574 26.2689 21.4856 16.8778 8.82732
internal_count=179 50 129 104 79 44
is_linear=0
shrinkage=0.05


Tree=25
num_leaves=7
num_cat=0
split_feature=31 4 57 104 6 2
split_gain=3.76707 3.87934 3.00959 1.73776 2.45044 0.614103
threshold=1.0000000180025095e-35 0.092500000000000013 1.0000000180025095e-35 -0.032499999999999994 0.12183393458661052 1.0000000180025095e-35
decision_type=2 2 2 2 2 2
left_child=1 -1 3 -2 5 -5
right_child=2 -3 -4 4 -6 -7
leaf_value=0.0081042026951275697 0.044899376782318916 -0.060574551351615505 -0.02679714178406984 0.013585528861520244 -0.0099913926921994384 0.040257033403681669
leaf_weight=3.766067832708357 4.5041140168905285 4.5286017507314682 4.7228170037269583 3.9190772473812157 8.041353374719618 4.8032363951206207
leaf_count=18 25 32 25 18 35 26
internal_value=-5.427e-05 -0.029392 0.00930861 0.0173264 0.00991802 0.0282731
internal_weight=34.2853 8.29467 25.9906 21.2678 16.7637 8.72231
internal_count=179 50 129 104 79 44
is_linear=0
shrinkage=0.05


Tree=26
num_leaves=7
num_cat=0
split_feature=117 37 60 7 6 16
split_gain=3.53127 6.2877 2.95433 3.57406 3.17843 0.141204
threshold=-0.053499999999999992 1.0000000180025095e-35 1.0000000180025095e-35 0.05436527576918606 0.14096012995541754 1.0000000180025095e-35
decision_type=2 2 2 2 2 2
left_child=-1 2 3 -2 -5 -3
right_child=1 5 -4 4 -6 -7
leaf_value=0.037162216117587028 0.027701227303171556 -0.045588109661219921 0.036724098721701841 -0.053492239171647651 -1.3796036977482198e-06 -0.061165873127663375
leaf_weight=5.3632143586873999 5.5306962281465628 2.8913499638438216 5.5017513781785956 4.5901410877704603 7.0309400409460068 2.9277417808771133
leaf_count=27 28 20 27 22 35 20
internal_value=-5.53502e-05 -0.0070658 0.00484284 -0.00538367 -0.0211294 -0.0534257
internal_weight=33.8358 28.4726 22.6535 17.1518 11.6211 5.81909
internal_count=179 152 112 85 57 40
is_linear=0
shrinkage=0.05


Tree=27
num_leaves=7
num_cat=0
split_feature=117 37 60 7 6 102
split_gain=3.2362 5.88418 2.68193 3.25796 2.95014 0.144106
threshold=-0.053499999999999992 1.0000000180025095e-35 1.0000000180025095e-35 0.05436527576918606 0.14096012995541754 -0.034999999999999989
decision_type=2 2 2 2 2 2
left_child=-1 2 3 -2 -5 -3
right_child=1 5 -4 4 -6 -7
leaf_value=0.035828825678197708 0.026617968312514551 -0.060523121212780445 0.035079770416665629 -0.051840225660304252 -1.3108302069679669e-06 -0.044518902941963437
leaf_weight=5.2866475582122794 5.4695739597082236 2.820284329354763 5.4724177271127692 4.5018588453531247 7.0309397429227829 2.8059227690100661
leaf_count=27 28 20 27 22 35 20
internal_value=-6.05353e-05 -0.00681241 0.00463513 -0.00516385 -0.0202368 -0.0525414
internal_weight=33.3876 28.101 22.4748 17.0024 11.5328 5.62621
internal_count=179 152 112 85 57 40
is_linear=0
shrinkage=0.05


Tree=28
num_leaves=7
num_cat=0
split_feature=52 121 92 64 7 117
split_gain=3.0011 3.97604 2.46167 2.66768 1.52788 4.11865
threshold=-1.0000000180025095e-35 1.0000000180025095e-35 -1.0000000180025095e-35 1.0000000180025095e-35 0.05436527576918606 -0.031499999999999993
decision_type=2 2 2 2 2 2
left_child=1 -1 -2 4 -4 -6
right_child=2 -3 3 -5 5 -7
leaf_value=-0.060559520593346787 -0.025273682112173703 0.011664262140890285 0.025572698847943078 0.04425709145253804 0.025261508813151701 -0.040419596515334985
leaf_weight=4.1564959660172454 4.5005441755056408 3.5188549160957336 5.4100287556648281 5.8135163486003867 4.7581151872873324 4.7891419380903208
leaf_count=30 22 18 28 30 25 26
internal_value=-6.54249e-05 -0.0274477 0.00825105 0.0155151 0.00434377 -0.00768577
internal_weight=32.9467 7.67535 25.2713 20.7708 14.9573 9.54726
internal_count=179 48 131 109 79 51
is_linear=0
shrinkage=0.05


Tree=29
num_leaves=6
num_cat=0
split_feature=117 52 6 102 89
split_gain=2.87013 5.20788 2.23584 1.9646 1.22827
threshold=-0.053499999999999992 -1.0000000180025095e-35 0.093584405414166169 -0.034999999999999989 1.0000000180025095e-35
decision_type=2 2 2 2 2
left_child=-1 -2 -3 -4 -5
right_child=1 2 3 4 -6
leaf_value=0.034117724947286744 -0.051170970805332887 0.034130338110658048 0.014985104882939604 -0.0036249721652616322 -0.039391211400630649
leaf_weight=5.1655932217836371 5.2723242044448879 4.8486554771661785 7.4875220507383409 5.5693178474903053 4.2187203615903854
leaf_count=27 38 28 37 28 21
internal_value=-6.85837e-05 -0.00651438 0.00412753 -0.00429322 -0.0190405
internal_weight=32.5621 27.3965 22.1242 17.2756 9.78804
internal_count=179 152 114 86 49
is_linear=0
shrinkage=0.05


Tree=30
num_leaves=7
num_cat=0
split_feature=6 104 115 114 106 7
split_gain=2.69747 4.80472 1.81474 1.7889 1.34282 0.537736
threshold=0.11975058919682451 -0.032499999999999994 0.045000000000000005 1.0000000180025095e-35 0.34500000000000003 0.015126564402408163
decision_type=2 2 2 2 2 2
left_child=2 -2 5 4 -3 -1
right_child=1 3 -4 -5 -6 -7
leaf_value=0.020073219190442557 0.025569730317417511 0.0024925351009553896 0.048424502347234943 -0.052603730473896042 -0.033716457493501432 -0.0071717389845070319
leaf_weight=3.3853952437639219 6.4275969862937918 5.3831197768449801 3.7203275263309479 4.4777761474251738 4.8832140862941742 3.8945116996765137
leaf_count=20 38 25 18 32 25 21
internal_value=-6.97037e-05 -0.0105057 0.020016 -0.0262325 -0.0147304 0.00549806
internal_weight=32.1719 21.1717 11.0002 14.7441 10.2663 7.27991
internal_count=179 120 59 82 50 41
is_linear=0
shrinkage=0.05


Tree=31
num_leaves=7
num_cat=0
split_feature=37 4 57 104 107 4
split_gain=2.57267 3.15344 2.09326 1.46004 1.70668 0.657328
threshold=1.0000000180025095e-35 0.092500000000000013 1.0000000180025095e-35 -0.032499999999999994 1.0000000180025095e-35 0.072500000000000023
decision_type=2 2 2 2 2 2
left_child=2 -2 3 -1 5 -5
right_child=1 -3 -4 4 -6 -7
leaf_value=0.040993356706954281 0.0078340413143027782 -0.058138498986698907 -0.023459037201730999 0.034319711980885979 -0.01172714039323659 0.0078493048553921977
leaf_weight=4.130622446537024 3.5071148276329032 3.7460836842656136 4.4338184595108023 4.7996600568294578 6.6475375145673743 4.5864325016736984
leaf_count=25 18 32 25 28 31 20
internal_value=-7.01756e-05 -0.026239 0.00764619 0.0144858 0.00765682 0.0213852
internal_weight=31.8513 7.2532 24.5981 20.1643 16.0336 9.38609
internal_count=179 50 129 104 79 48
is_linear=0
shrinkage=0.05


Tree=32
num_leaves=7
num_cat=0
split_feature=37 101 94 64 102 7
split_gain=2.37161 4.57854 1.91654 1.54271 1.19873 0.316631
threshold=1.0000000180025095e-35 1.0000000180025095e-35 -1.0000000180025095e-35 1.0000000180025095e-35 0.12500000000000003 0.061911247506873261
decision_type=2 2 2 2 2 2
left_child=2 -2 -1 4 5 -4
right_child=1 -3 3 -5 -6 -7
leaf_value=-0.021815228992787396 -0.058052359439442404 0.02404520696921136 0.027902140842452822 0.035146349994525553 -0.011565439733104112 0.0074693815228410679
leaf_weight=4.5787709802389207 4.2838012874126425 2.8137559443712234 3.9598862677812594 6.0391837656497946 6.1572078019380569 3.637790635228157
leaf_count=25 37 13 23 32 31 18
internal_value=-7.01791e-05 -0.0255056 0.00733681 0.0140803 0.00483105 0.0181189
internal_weight=31.4704 7.09756 24.3728 19.7941 13.7549 7.59768
internal_count=179 50 129 104 72 41
is_linear=0
shrinkage=0.05


Tree=33
num_leaves=8
num_cat=0
split_feature=117 37 119 11 7 102 16
split_gain=2.27922 4.26354 2.01656 2.27243 1.6547 1.80464 0.151265
threshold=-0.053499999999999992 1.0000000180025095e-35 2.6600000000000006 1.0000000180025095e-35 0.05436527576918606 -0.29999999999999999 1.0000000180025095e-35
decision_type=2 2 2 2 2 2 2
left_child=-1 2 3 4 -2 -6 -3
right_child=1 6 -4 -5 5 -7 -8
leaf_value=0.031032706284014736 0.011029478440727053 -0.040159352950006978 0.033841719397581148 0.027666990347363168 -0.0060560171991363284 -0.051851170659422442 -0.058035033872243708
leaf_weight=4.9524070769548443 4.2171490639448264 2.4228512272238723 4.3679595887660971 4.2088047713041297 4.6673057675361713 3.9905876964330576 2.3134972900152206
leaf_count=27 23 20 20 26 23 20 20
internal_value=-7.32866e-05 -0.0059557 0.00352396 -0.00422762 -0.0146539 -0.0271639 -0.0488908
internal_weight=31.1406 26.1882 21.4518 17.0838 12.875 8.65789 4.73635
internal_count=179 152 112 92 66 43 40
is_linear=0
shrinkage=0.05


Tree=34
num_leaves=7
num_cat=0
split_feature=6 104 115 114 106 7
split_gain=2.12233 4.02393 1.67025 1.50107 1.12297 0.358471
threshold=0.11975058919682451 -0.032499999999999994 0.045000000000000005 1.0000000180025095e-35 0.34500000000000003 0.015126564402408163
decision_type=2 2 2 2 2 2
left_child=2 -2 5 4 -3 -1
right_child=1 3 -4 -5 -6 -7
leaf_value=0.016178105986166393 0.024145025972881404 0.001705783007678637 0.04582958605407482 -0.050117334634452587 -0.031828386505212823 -0.0065438906899376679
leaf_weight=3.1987492740154284 6.153496831655505 5.3368632495403272 3.5828849375247955 4.0281900465488425 4.6907806396484375 3.7953725308179855
leaf_count=20 38 25 18 32 25 21
internal_value=-7.75318e-05 -0.0095749 0.0180689 -0.0243371 -0.013981 0.00384797
internal_weight=30.7863 20.2093 10.577 14.0558 10.0276 6.99412
internal_count=179 120 59 82 50 41
is_linear=0
shrinkage=0.05


Tree=35
num_leaves=7
num_cat=0
split_feature=2 114 104 106 38 4
split_gain=2.0338 4.39422 1.36788 2.16429 0.766321 0.721074
threshold=1.0000000180025095e-35 1.0000000180025095e-35 -0.032499999999999994 0.34500000000000003 1.0000000180025095e-35 0.077500000000000013
decision_type=2 2 2 2 2 2
left_child=1 2 -1 5 -3 -4
right_child=-2 4 3 -5 -6 -7
leaf_value=0.025914336631578494 0.027808974911515155 -0.058426756479440602 0.027239784224696102 -0.030420235713176532 -0.02327288235338618 -0.0022443099615482749
leaf_weight=5.9108085855841699 5.3839370906352988 3.399085320532321 4.0621789246797579 4.6504417434334746 2.850170835852623 4.2362353205680847
leaf_count=36 31 31 21 25 15 20
internal_value=-7.72262e-05 -0.00605668 0.00598381 -0.00311395 -0.0423937 0.0121885
internal_weight=30.4929 25.1089 18.8597 12.9489 6.24926 8.29841
internal_count=179 148 102 66 46 41
is_linear=0
shrinkage=0.05


Tree=36
num_leaves=7
num_cat=0
split_feature=37 101 93 64 107 107
split_gain=1.95692 3.88376 1.67358 2.3121 4.84144 0.253384
threshold=1.0000000180025095e-35 1.0000000180025095e-35 1.0000000180025095e-35 1.0000000180025095e-35 1.0000000180025095e-35 -14.999999999999998
decision_type=2 2 2 2 2 2
left_child=2 -2 3 4 5 -1
right_child=1 -3 -4 -5 -6 -7
leaf_value=0.012851110091332486 -0.057016697911903141 0.021073781995713747 -0.022374375619801476 0.040259906760715045 -0.039225287550174383 0.02960473228503864
leaf_weight=3.7938020378351265 3.7994096651673308 2.7407436221837997 4.116862714290618 5.4791273921728125 4.7338649183511725 5.5707702636718786
leaf_count=20 37 13 20 30 26 33
internal_value=-7.95949e-05 -0.0242918 0.00660347 0.0126971 0.00198522 0.0228175
internal_weight=30.2346 6.54015 23.6944 19.5776 14.0984 9.36457
internal_count=179 50 129 109 79 53
is_linear=0
shrinkage=0.05


Tree=37
num_leaves=7
num_cat=0
split_feature=37 101 93 64 107 107
split_gain=1.81243 3.6732 1.52323 2.11288 4.42469 0.240006
threshold=1.0000000180025095e-35 1.0000000180025095e-35 1.0000000180025095e-35 1.0000000180025095e-35 1.0000000180025095e-35 -14.999999999999998
decision_type=2 2 2 2 2 2
left_child=2 -2 3 4 5 -1
right_child=1 -3 -4 -5 -6 -7
leaf_value=0.012225390265956235 -0.056632510362688328 0.020111892521786474 -0.021348164951212983 0.038706898461878921 -0.037769498839605571 0.028590483074692481
leaf_weight=3.7887111306190544 3.638006553053855 2.7285516709089279 4.0994761437177649 5.415658399462699 4.6721091866493216 5.4822643101215398
leaf_count=20 37 13 20 30 26 33
internal_value=-8.2154e-05 -0.0237417 0.00633905 0.0122022 0.00190746 0.0219027
internal_weight=29.8248 6.36656 23.4582 19.3587 13.9431 9.27098
internal_count=179 50 129 109 79 53
is_linear=0
shrinkage=0.05


Tree=38
num_leaves=6
num_cat=0
split_feature=7 114 106 115 48
split_gain=1.70176 3.68964 1.97431 1.76208 3.73615
threshold=0.05436527576918606 1.0000000180025095e-35 -2.3099999999999996 0.21000000000000002 0.09500000000000007
decision_type=2 2 2 2 2
left_child=-1 2 -2 -4 -5
right_child=1 -3 3 4 -6
leaf_value=0.024603248435351957 -0.028136955695848023 -0.04908229851100885 0.030728864949526747 -0.029946070629634048 0.035425541533825787
leaf_weight=5.6419630050659206 4.0347796082496723 4.1013938561081877 6.6024097353219959 5.3510465249419195 3.6948856711387634
leaf_count=33 20 36 33 32 25
internal_value=-8.45011e-05 -0.00594072 0.00304874 0.0110897 -0.0032445
internal_weight=29.4265 23.7845 19.6831 15.6483 9.04593
internal_count=179 146 110 90 57
is_linear=0
shrinkage=0.05


Tree=39
num_leaves=7
num_cat=0
split_feature=37 101 104 6 118 2
split_gain=1.64928 3.27038 1.37096 2.06756 1.0551 0.672443
threshold=1.0000000180025095e-35 1.0000000180025095e-35 -0.032499999999999994 0.12183393458661052 -1.0000000180025095e-35 1.0000000180025095e-35
decision_type=2 2 2 2 2 2
left_child=2 -2 -1 5 -5 -4
right_child=1 -3 3 4 -6 -7
leaf_value=0.027931643373382553 -0.056057869946493089 0.017784073750357714 0.0034266976988825224 -0.0011624415588828529 -0.033790309013188996 0.033446225188967886
leaf_weight=5.4543818905949655 3.3755569607019416 2.6978572010993958 3.5655745267868069 5.6026619374752107 4.4423649460077206 3.9123781844973564
leaf_count=33 37 13 18 25 27 26
internal_value=-8.42324e-05 -0.0232567 0.00604076 -0.000773226 -0.015592 0.0191326
internal_weight=29.0508 6.07341 22.9774 17.523 10.045 7.47795
internal_count=179 50 129 96 52 44
is_linear=0
shrinkage=0.05


Tree=40
num_leaves=7
num_cat=0
split_feature=37 101 57 104 7 107
split_gain=1.52614 3.10031 1.27559 1.16937 1.13507 1.32154
threshold=1.0000000180025095e-35 1.0000000180025095e-35 1.0000000180025095e-35 -0.032499999999999994 0.05436527576918606 1.0000000180025095e-35
decision_type=2 2 2 2 2 2
left_child=2 -2 3 -1 -5 -6
right_child=1 -3 -4 4 5 -7
leaf_value=0.036597269640996355 -0.055731404954578102 0.016966813779680599 -0.019633714935058163 0.023165821719834879 0.011612148711267532 -0.025742549667443299
leaf_weight=3.6695861071348252 3.2292618602514258 2.6867087632417679 4.0580111891031256 5.5244858041405704 5.2280315011739713 4.3276930749416351
leaf_count=25 37 13 25 33 25 21
internal_value=-8.63862e-05 -0.0227159 0.00578333 0.0112843 0.00512473 -0.00530542
internal_weight=28.7238 5.91597 22.8078 18.7498 15.0802 9.55572
internal_count=179 50 129 104 79 46
is_linear=0
shrinkage=0.05


Tree=41
num_leaves=7
num_cat=0
split_feature=2 114 104 106 13 38
split_gain=1.45375 3.51329 1.11274 1.64476 0.784161 0.588855
threshold=1.0000000180025095e-35 1.0000000180025095e-35 -0.032499999999999994 0.34500000000000003 1.0000000180025095e-35 1.0000000180025095e-35
decision_type=2 2 2 2 2 2
left_child=1 2 -1 4 -4 -3
right_child=-2 5 3 -5 -6 -7
leaf_value=0.024082981176993132 0.02435706293688257 -0.0568231722117781 0.026555651359904099 -0.027576275375873718 -0.0046748202186919661 -0.023920209947594875
leaf_weight=5.4978381469845834 5.0088490471243849 2.7448453307151786 3.907687574625017 4.3829063698649398 4.1388040855526924 2.6948535293340683
leaf_count=36 31 31 19 25 22 15
internal_value=-8.69864e-05 -0.00532672 0.00535292 -0.00293186 0.0104919 -0.0405229
internal_weight=28.3758 23.3669 17.9272 12.4294 8.04649 5.4397
internal_count=179 148 102 66 41 46
is_linear=0
shrinkage=0.05


Tree=42
num_leaves=6
num_cat=0
split_feature=7 114 106 115 48
split_gain=1.36874 2.88358 1.73843 1.51559 3.08365
threshold=0.05436527576918606 1.0000000180025095e-35 -2.3099999999999996 0.21000000000000002 0.09500000000000007
decision_type=2 2 2 2 2
left_child=-1 2 -2 -4 -5
right_child=1 -3 3 4 -6
leaf_value=0.02241392324415821 -0.027181012961368684 -0.046303848705809024 0.028174075291194579 -0.028435984193440261 0.032690223050403713
leaf_weight=5.4498234242200878 3.9636760130524715 3.6347598806023589 6.5296256095170948 5.118577837944029 3.4565236791968346
leaf_count=33 20 36 33 32 25
internal_value=-8.80646e-05 -0.0054896 0.00229029 0.0100239 -0.00379672
internal_weight=28.153 22.7032 19.0684 15.1047 8.5751
internal_count=179 146 110 90 57
is_linear=0
shrinkage=0.05


Tree=43
num_leaves=7
num_cat=0
split_feature=37 101 104 2 103 117
split_gain=1.32554 2.72203 1.09227 1.61015 1.25787 0.537827
threshold=1.0000000180025095e-35 1.0000000180025095e-35 -0.032499999999999994 1.0000000180025095e-35 -1.0000000180025095e-35 -1.0000000180025095e-35
decision_type=2 2 2 2 2 2
left_child=2 -2 -1 4 -4 -6
right_child=1 -3 3 -5 5 -7
leaf_value=0.025424098140236075 -0.055173930538144567 0.014673041138387242 0.01327171046450808 0.023409666895915247 -0.0090971557171953855 -0.034560426577240039
leaf_weight=5.2079211398959222 2.9235270507633677 2.6677011102437973 3.8038154542446199 4.908887803554534 4.2752021551132255 4.0271639004349602
leaf_count=33 37 13 18 31 20 27
internal_value=-8.72435e-05 -0.0218484 0.00538778 -0.000744876 -0.0105392 -0.0214484
internal_weight=27.8142 5.59123 22.223 17.0151 12.1062 8.30237
internal_count=179 50 129 96 65 47
is_linear=0
shrinkage=0.05


Tree=44
num_leaves=6
num_cat=0
split_feature=7 114 106 115 48
split_gain=1.2727 2.52385 1.58121 1.33335 2.77343
threshold=0.05436527576918606 1.0000000180025095e-35 -2.3099999999999996 0.21000000000000002 0.09500000000000007
decision_type=2 2 2 2 2
left_child=-1 2 -2 -4 -5
right_child=1 -3 3 4 -6
leaf_value=0.021705654600326196 -0.026421656118315137 -0.044857195192600431 0.026295886039679889 -0.027449769639435063 0.03133476640788975
leaf_weight=5.3894245848059681 3.9201994091272434 3.4242536090314379 6.4841454550623867 5.0123806819319707 3.3457761257886887
leaf_count=33 20 36 33 32 25
internal_value=-8.85843e-05 -0.00538266 0.00182164 0.00928136 -0.00391828
internal_weight=27.5762 22.1868 18.7625 14.8423 8.35816
internal_count=179 146 110 90 57
is_linear=0
shrinkage=0.05


Tree=45
num_leaves=7
num_cat=0
split_feature=37 101 119 48 2 77
split_gain=1.21589 2.43974 1.02893 1.10558 1.67457 0.415902
threshold=1.0000000180025095e-35 1.0000000180025095e-35 2.6600000000000006 0.09500000000000007 1.0000000180025095e-35 -1.0000000180025095e-35
decision_type=2 2 2 2 2 2
left_child=2 -2 3 4 5 -1
right_child=1 -3 -4 -5 -6 -7
leaf_value=-0.0070451653944020188 -0.054751648201930625 0.012768023247183125 0.027156760761520515 0.021206816820704584 0.017954751431890386 -0.029116602916574436
leaf_weight=3.6281465291977009 2.712640229612588 2.6399467885494232 4.269575059413909 4.4943713769316664 4.3260786756873122 5.1840422004461297
leaf_count=23 37 13 20 30 28 28
internal_value=-8.74857e-05 -0.0214503 0.00513328 -0.000199494 -0.00752222 -0.0200294
internal_weight=27.2548 5.35259 21.9022 17.6326 13.1383 8.81219
internal_count=179 50 129 109 79 51
is_linear=0
shrinkage=0.05


Tree=46
num_leaves=6
num_cat=0
split_feature=7 114 106 115 48
split_gain=1.20243 2.23285 1.47705 1.14945 2.40998
threshold=0.05436527576918606 1.0000000180025095e-35 -2.3099999999999996 0.21000000000000002 0.09500000000000007
decision_type=2 2 2 2 2
left_child=-1 2 -2 -4 -5
right_child=1 -3 3 4 -6
leaf_value=0.021183662377766869 -0.025984488297175437 -0.043591906641275213 0.024486680968382059 -0.025824760162243179 0.029752132830742614
leaf_weight=5.3334583193063763 3.8875589966774067 3.2410008609294882 6.4401414990425083 4.9167744889855367 3.2332994416356087
leaf_count=33 20 36 33 32 25
internal_value=-8.85226e-05 -0.00531231 0.00140193 0.00869903 -0.00377628
internal_weight=27.0522 21.7188 18.4778 14.5902 8.15007
internal_count=179 146 110 90 57
is_linear=0
shrinkage=0.05


Tree=47
num_leaves=6
num_cat=0
split_feature=37 101 104 7 107
split_gain=1.11735 2.19374 0.962482 1.39845 0.752551
threshold=1.0000000180025095e-35 1.0000000180025095e-35 -0.032499999999999994 0.05436527576918606 1.0000000180025095e-35
decision_type=2 2 2 2 2
left_child=2 -2 -1 -4 -5
right_child=1 -3 3 4 -6
leaf_value=0.024075087986545451 -0.054371750785967891 0.011023426799766376 0.020347829463247466 0.0020712758269017242 -0.02371331260247567
leaf_weight=5.0201728940010133 2.5176857933402053 2.6138477027416229 5.2764001637697246 5.6598185077309591 5.6593821421265602
leaf_count=33 37 13 33 29 34
internal_value=-8.72119e-05 -0.0210614 0.00489202 -0.000910866 -0.0108205
internal_weight=26.7473 5.13153 21.6158 16.5956 11.3192
internal_count=179 50 129 96 63
is_linear=0
shrinkage=0.05


Tree=48
num_leaves=7
num_cat=0
split_feature=2 114 104 6 6 38
split_gain=1.12911 2.41742 0.905782 1.33234 1.47771 0.572675
threshold=1.0000000180025095e-35 1.0000000180025095e-35 -0.032499999999999994 0.11975058919682451 0.13588465555016002 1.0000000180025095e-35
decision_type=2 2 2 2 2 2
left_child=1 2 -1 -4 -5 -3
right_child=-2 5 3 4 -6 -7
leaf_value=0.021519983679801027 0.022097729348138584 -0.055484840984978481 0.020485870756988874 -0.037523812082859591 0.0053389505262393102 -0.020609954942013616
leaf_weight=5.1090637966990533 4.7143608927726737 2.1550613455474368 3.8660966753959682 3.8644824326038343 4.1920564547181129 2.5940059572458267
leaf_count=36 31 31 21 22 23 15
internal_value=-8.83376e-05 -0.00489042 0.00390556 -0.00364253 -0.015221 -0.0364357
internal_weight=26.4951 21.7808 17.0317 11.9226 8.05654 4.74907
internal_count=179 148 102 66 45 46
is_linear=0
shrinkage=0.05


Tree=49
num_leaves=7
num_cat=0
split_feature=2 114 104 106 4 38
split_gain=1.02935 2.22536 0.822753 1.23657 0.68794 0.586447
threshold=1.0000000180025095e-35 1.0000000180025095e-35 -0.032499999999999994 0.34500000000000003 0.077500000000000013 1.0000000180025095e-35
decision_type=2 2 2 2 2 2
left_child=1 2 -1 4 -4 -3
right_child=-2 5 3 -5 -6 -7
leaf_value=0.020569967305394791 0.021203771944570848 -0.055205727245017412 0.023611486441251054 -0.025706140479816342 -0.0061183343024616855 -0.019502529273570466
leaf_weight=5.0785703063011232 4.6686545535922042 2.0600599758326998 3.7587649747729319 4.0980803221464157 4.0343125462532043 2.6039746403694153
leaf_count=36 31 31 21 25 20 15
internal_value=-8.86292e-05 -0.00468362 0.00372351 -0.00347141 0.00822098 -0.0352723
internal_weight=26.3024 21.6338 16.9697 11.8912 7.79308 4.66403
internal_count=179 148 102 66 41 46
is_linear=0
shrinkage=0.05


Tree=50
num_leaves=7
num_cat=0
split_feature=37 101 119 48 2 77
split_gain=0.986495 2.02254 0.915312 0.853706 1.28092 0.454794
threshold=1.0000000180025095e-35 1.0000000180025095e-35 2.6600000000000006 0.09500000000000007 1.0000000180025095e-35 -1.0000000180025095e-35
decision_type=2 2 2 2 2 2
left_child=2 -2 3 4 5 -1
right_child=1 -3 -4 -5 -6 -7
leaf_value=-0.0041672724492107707 -0.054162143514547838 0.0099574585869930468 0.025410329155414125 0.018726845162446094 0.015651784614471111 -0.027705736508556612
leaf_weight=3.4418008774519047 2.3231766894459716 2.613301545381546 4.2295327931642523 4.277513548731803 4.1568183004856101 5.0823243111372003
leaf_count=23 37 13 20 30 28 28
internal_value=-8.877e-05 -0.0202181 0.00460107 -0.00058888 -0.00710443 -0.0182016
internal_weight=26.1245 4.93648 21.188 16.9585 12.6809 8.52413
internal_count=179 50 129 109 79 51
is_linear=0
shrinkage=0.05


Tree=51
num_leaves=6
num_cat=0
split_feature=7 114 106 115 48
split_gain=1.02583 1.61137 1.36366 1.01325 1.96214
threshold=0.05436527576918606 1.0000000180025095e-35 -2.3099999999999996 0.21000000000000002 0.09500000000000007
decision_type=2 2 2 2 2
left_child=-1 2 -2 -4 -5
right_child=1 -3 3 4 -6
leaf_value=0.019770067299535853 -0.025900724392264225 -0.040317911366610393 0.022426735604764172 -0.024706208649506126 0.026912834666592052
leaf_weight=5.1998071298003223 3.8573591932654461 2.8035847581922999 6.3635752126574481 4.7061070799827576 3.0238988623023033
leaf_count=33 20 36 33 32 25
internal_value=-8.92605e-05 -0.00506479 0.00044106 0.00765071 -0.00451337
internal_weight=25.9543 20.7545 17.9509 14.0936 7.73001
internal_count=179 146 110 90 57
is_linear=0
shrinkage=0.05


Tree=52
num_leaves=6
num_cat=0
split_feature=7 104 6 104 6
split_gain=0.93598 1.3254 1.38111 1.77936 0.40352
threshold=0.05436527576918606 1.0000000180025095e-35 0.11975058919682451 -0.032499999999999994 0.15063779421950252
decision_type=2 2 2 2 2
left_child=-1 2 -2 -4 -5
right_child=1 -3 3 4 -6
leaf_value=0.018978075433868855 0.032995344507209472 -0.030349225936823227 0.018318433024001827 -0.028055768773664086 -0.0058827938391805036
leaf_weight=5.1473309621214893 2.8676913827657762 4.0869942754507056 5.0537639111280503 5.0925399996340186 3.4365887753665447
leaf_count=33 18 36 38 32 22
internal_value=-8.74071e-05 -0.00486579 0.00146534 -0.00519144 -0.0191217
internal_weight=25.6849 20.5376 16.4506 13.5829 8.52913
internal_count=179 146 110 92 54
is_linear=0
shrinkage=0.05


Tree=53
num_leaves=7
num_cat=0
split_feature=37 101 119 30 14 123
split_gain=0.910644 1.78325 0.858945 0.794386 1.09323 0.317226
threshold=1.0000000180025095e-35 1.0000000180025095e-35 2.6600000000000006 1.0000000180025095e-35 1.0000000180025095e-35 1.0000000180025095e-35
decision_type=2 2 2 2 2 2
left_child=2 -2 3 4 5 -1
right_child=1 -3 -4 -5 -6 -7
leaf_value=0.0090287080085064194 -0.053801858622976761 0.0079477968751782008 0.02468555554379279 -0.021022873653055482 -0.011130877840507942 0.030261204354312579
leaf_weight=4.0730473026633351 2.1298359408974639 2.5921735763549805 4.1776493787765494 3.7224940806627265 5.7051749899983406 3.0966044962406158
leaf_count=22 37 13 20 26 36 25
internal_value=-8.39025e-05 -0.019904 0.00442108 -0.000679615 0.00520222 0.0181991
internal_weight=25.497 4.72201 20.775 16.5973 12.8748 7.16965
internal_count=179 50 129 109 83 47
is_linear=0
shrinkage=0.05


Tree=54
num_leaves=6
num_cat=0
split_feature=7 104 6 104 6
split_gain=0.87265 1.16684 1.26384 1.57328 0.386382
threshold=0.05436527576918606 1.0000000180025095e-35 0.11975058919682451 -0.032499999999999994 0.15063779421950252
decision_type=2 2 2 2 2
left_child=-1 2 -2 -4 -5
right_child=1 -3 3 4 -6
leaf_value=0.018388836301637526 0.031540299667052345 -0.029043747949990074 0.01719905152562894 -0.027090684256186461 -0.0053510742068598408
leaf_weight=5.1049636900424984 2.8323757573962274 3.9709925837814799 4.9457732662558618 5.0452806800603778 3.4356872066855431
leaf_count=33 18 36 38 32 22
internal_value=-8.39271e-05 -0.00474543 0.00118899 -0.00521363 -0.0182838
internal_weight=25.3351 20.2301 16.2591 13.4267 8.48097
internal_count=179 146 110 92 54
is_linear=0
shrinkage=0.05


Tree=55
num_leaves=8
num_cat=0
split_feature=2 114 4 6 6 5 67
split_gain=0.873663 1.81437 0.730343 0.804191 1.45386 0.182054 0.0418618
threshold=1.0000000180025095e-35 1.0000000180025095e-35 0.13892857142857154 0.11975058919682451 0.13588465555016002 0.11458333333333352 1.0000000180025095e-35
decision_type=2 2 2 2 2 2 2
left_child=1 2 3 -1 -5 -6 -3
right_child=-2 6 -4 4 5 -7 -8
leaf_value=0.01753753666746587 0.019972017770115855 -0.037640208083319887 0.024245866856506402 -0.034187079634487479 0.015025891354696289 -0.0029505604845407596 -0.027730352980185238
leaf_weight=3.7266551554203131 4.4672735929489127 2.401931755244731 3.2914469540119162 3.7201546430587751 2.8329861164093018 2.8008874133229256 1.9155479520559309
leaf_count=21 31 31 19 22 15 25 15
internal_value=-8.04749e-05 -0.00441018 0.00319342 -0.00210394 -0.00992912 0.00608888 -0.0332435
internal_weight=25.1569 20.6896 16.3721 13.0807 9.35403 5.63387 4.31748
internal_count=179 148 102 83 62 40 46
is_linear=0
shrinkage=0.05


Tree=56
num_leaves=8
num_cat=0
split_feature=37 101 119 30 120 15 22
split_gain=0.810693 1.66504 0.838228 0.700366 1.03267 0.954814 0.0326093
threshold=1.0000000180025095e-35 1.0000000180025095e-35 2.6600000000000006 1.0000000180025095e-35 1.0000000180025095e-35 1.0000000180025095e-35 1.0000000180025095e-35
decision_type=2 2 2 2 2 2 2
left_child=2 -2 3 4 5 -1 -7
right_child=1 -3 -4 -5 -6 6 -8
leaf_value=0.038077525940910462 -0.053575415137680327 0.0072553375754347699 0.024294461727678948 -0.020230052939288853 -0.020247031265431172 -0.00062101899679374388 0.0062795863885828822
leaf_weight=2.6880903393030255 1.9842342808842648 2.5975009053945541 4.1328805685043326 3.6446621641516677 3.1368644535541526 3.3404076173901558 3.5119475051760674
leaf_count=27 37 13 20 26 13 23 20
internal_value=-7.84161e-05 -0.0190889 0.0041798 -0.000913428 0.00464 0.0128228 0.00291566
internal_weight=25.0366 4.58174 20.4549 16.322 12.6773 9.54045 6.85236
internal_count=179 50 129 109 83 70 43
is_linear=0
shrinkage=0.05


Tree=57
num_leaves=8
num_cat=0
split_feature=2 114 4 6 6 5 67
split_gain=0.807523 1.60648 0.6948 0.744846 1.3422 0.158325 0.0427705
threshold=1.0000000180025095e-35 1.0000000180025095e-35 0.13892857142857154 0.11975058919682451 0.13588465555016002 0.11458333333333352 1.0000000180025095e-35
decision_type=2 2 2 2 2 2 2
left_child=1 2 3 -1 -5 -6 -3
right_child=-2 6 -4 4 5 -7 -8
leaf_value=0.016676518037681554 0.019334004178958634 -0.036381578005231834 0.023472099602647314 -0.033242394446881596 0.013929566978946829 -0.0029411371465953291 -0.026266053281117682
leaf_weight=3.6899947077036002 4.4071681275963774 2.293500678613781 3.2706449404358855 3.6965909376740438 2.8256862983107567 2.7383486554026604 1.9196001440286634
leaf_count=21 31 31 19 22 15 25 15
internal_value=-7.74882e-05 -0.00426405 0.00288069 -0.00231962 -0.00988884 0.00562662 -0.0317727
internal_weight=24.8415 20.4344 16.2213 12.9506 9.26063 5.56403 4.2131
internal_count=179 148 102 83 62 40 46
is_linear=0
shrinkage=0.05


Tree=58
num_leaves=8
num_cat=0
split_feature=2 114 4 6 6 5 67
split_gain=0.734807 1.46513 0.628815 0.673904 1.22045 0.142747 0.048778
threshold=1.0000000180025095e-35 1.0000000180025095e-35 0.13892857142857154 0.11975058919682451 0.13588465555016002 0.11458333333333352 1.0000000180025095e-35
decision_type=2 2 2 2 2 2 2
left_child=1 2 3 -1 -5 -6 -3
right_child=-2 6 -4 4 5 -7 -8
leaf_value=0.015881052030580222 0.018528042975734339 -0.035524720286965593 0.022357223554324353 -0.031789167119704247 0.013220917874907735 -0.0027924011139292045 -0.024686057081758968
leaf_weight=3.681308716535578 4.3699062615633002 2.2329341061413279 3.2622719779610625 3.6729165688157064 2.8282199800014496 2.7399545907974243 1.9398013465106485
leaf_count=21 31 31 19 22 15 25 15
internal_value=-7.54042e-05 -0.00406881 0.0027421 -0.00220975 -0.00941646 0.00534118 -0.0304861
internal_weight=24.7273 20.3574 16.1847 12.9224 9.24109 5.56817 4.17274
internal_count=179 148 102 83 62 40 46
is_linear=0
shrinkage=0.05


Tree=59
num_leaves=6
num_cat=0
split_feature=58 107 5 93 52
split_gain=0.743168 1.65302 1.62629 0.901296 0.794272
threshold=1.0000000180025095e-35 1.0000000180025095e-35 0.13541666666666655 1.0000000180025095e-35 0.4250000000000001
decision_type=2 2 2 2 2
left_child=3 2 4 -1 -2
right_child=1 -3 -4 -5 -6
leaf_value=0.02535416991519749 0.025826970109583704 -0.033396415337314904 -0.024171911360659323 -0.010209065532200589 -0.0055211504053482938
leaf_weight=5.0116108246147659 5.728579409420492 4.1440165955573312 3.8462687954306594 2.7642390839755535 3.1217590682208538
leaf_count=35 38 36 28 19 23
internal_value=-7.33609e-05 -0.00597667 0.0029728 0.0127118 0.0147696
internal_weight=24.6165 16.8406 12.6966 7.77585 8.85034
internal_count=179 125 89 54 61
is_linear=0
shrinkage=0.05


Tree=60
num_leaves=6
num_cat=0
split_feature=7 104 6 104 6
split_gain=0.681748 1.04797 0.967374 1.15196 0.320839
threshold=0.05436527576918606 1.0000000180025095e-35 0.11975058919682451 -0.032499999999999994 0.15063779421950252
decision_type=2 2 2 2 2
left_child=-1 2 -2 -4 -5
right_child=1 -3 3 4 -6
leaf_value=0.016498694837430074 0.028722145222788271 -0.027925456408145255 0.015285663826582918 -0.023610149934314376 -0.0035034985583959673
leaf_weight=4.9519496038556126 2.6870023012161282 3.777089435607194 4.7889398485422161 4.9424279890954441 3.3146075680851936
leaf_count=33 18 36 38 32 22
internal_value=-6.95705e-05 -0.00427485 0.00140307 -0.00422368 -0.0155388
internal_weight=24.462 19.5101 15.733 13.046 8.25704
internal_count=179 146 110 92 54
is_linear=0
shrinkage=0.05


Tree=61
num_leaves=6
num_cat=0
split_feature=64 107 5 93 52
split_gain=0.678922 1.4529 1.40591 0.856132 0.737686
threshold=1.0000000180025095e-35 1.0000000180025095e-35 0.13541666666666655 1.0000000180025095e-35 0.4250000000000001
decision_type=2 2 2 2 2
left_child=1 2 4 -2 -1
right_child=3 -3 -4 -5 -6
leaf_value=0.024601348515234073 0.024622780020011784 -0.031838866864901567 -0.022548729556644446 -0.010152500025766287 -0.0057584841478117788
leaf_weight=5.5966328009963089 4.9531184732913962 4.0408318508416405 3.8458406850695601 2.7538877762854099 3.1141898557543755
leaf_count=38 35 36 28 19 23
internal_value=-6.67336e-05 -0.00576127 0.00263071 0.0121968 0.0137475
internal_weight=24.3045 16.5975 12.5567 7.70701 8.71082
internal_count=179 125 89 54 61
is_linear=0
shrinkage=0.05


Tree=62
num_leaves=7
num_cat=0
split_feature=37 101 64 107 4 104
split_gain=0.649882 1.55152 0.692851 1.42102 0.873464 0.50423
threshold=1.0000000180025095e-35 1.0000000180025095e-35 1.0000000180025095e-35 1.0000000180025095e-35 0.092500000000000013 -0.030499999999999996
decision_type=2 2 2 2 2 2
left_child=2 -2 3 4 -1 -4
right_child=1 -3 5 -5 -6 -7
leaf_value=0.020742465129507927 -0.053293000355381107 0.0071889237343738645 0.029594967442430998 -0.029158952284445608 -0.011138595793825545 0.0030679806049670288
leaf_weight=5.2225151509046608 1.789843501523136 2.601586177945137 3.5516281202435493 3.7284256741404525 3.649912491440773 3.614524617791175
leaf_count=38 37 13 26 26 21 18
internal_value=-6.32476e-05 -0.0174621 0.00380207 -0.00325724 0.00762733 0.0162151
internal_weight=24.1584 4.39143 19.767 12.6009 8.87243 7.16615
internal_count=179 50 129 85 59 44
is_linear=0
shrinkage=0.05


Tree=63
num_leaves=7
num_cat=0
split_feature=37 101 119 120 11 21
split_gain=0.598472 1.4819 0.644847 0.594256 0.878551 0.378083
threshold=1.0000000180025095e-35 1.0000000180025095e-35 2.6600000000000006 1.0000000180025095e-35 1.0000000180025095e-35 1.0000000180025095e-35
decision_type=2 2 2 2 2 2
left_child=2 -2 3 4 5 -1
right_child=1 -3 -4 -5 -6 -7
leaf_value=0.0079436794705815671 -0.05312497015998241 0.0068437398890117008 0.021382450385170865 -0.017618867671916515 0.029733255507786979 -0.012690258471172243
leaf_weight=4.2491431161761319 1.7078008409589518 2.5963030159473419 4.0604422539472571 3.9949605315923682 2.6983054727315894 4.649042911827566
leaf_count=30 37 13 20 18 24 37
internal_value=-6.41694e-05 -0.0169509 0.00363432 -0.000987785 0.00474158 -0.00283695
internal_weight=23.956 4.3041 19.6519 15.5915 11.5965 8.89819
internal_count=179 50 129 109 91 67
is_linear=0
shrinkage=0.05


Tree=64
num_leaves=8
num_cat=0
split_feature=2 114 4 6 6 5 101
split_gain=0.569857 1.41054 0.57394 0.594159 1.00638 0.119157 0.0341711
threshold=1.0000000180025095e-35 1.0000000180025095e-35 0.13892857142857154 0.11975058919682451 0.13588465555016002 0.11458333333333352 1.0000000180025095e-35
decision_type=2 2 2 2 2 2 2
left_child=1 2 3 -1 -5 -6 -3
right_child=-2 6 -4 4 5 -7 -8
leaf_value=0.015549725887631342 0.01682572537090796 -0.034632618782481681 0.021985466118853426 -0.029151830250307532 0.012041935392426005 -0.0027302997090921217 -0.025181145284885395
leaf_weight=3.5609314292669358 4.1286815777420989 2.2124119326472274 3.1903817206621161 3.5839763730764371 2.8385229408740997 2.62988256290555 1.6843850612640383
leaf_count=21 31 36 19 22 15 25 10
internal_value=-6.43452e-05 -0.00360404 0.00303948 -0.00175267 -0.00855891 0.00493763 -0.0305472
internal_weight=23.8292 19.7005 15.8037 12.6133 9.05238 5.46841 3.8968
internal_count=179 148 102 83 62 40 46
is_linear=0
shrinkage=0.05


Tree=65
num_leaves=6
num_cat=0
split_feature=90 104 2 14 31
split_gain=0.564775 0.755749 1.27349 1.51028 0.918684
threshold=-0.31499999999999995 1.0000000180025095e-35 1.0000000180025095e-35 1.0000000180025095e-35 1.0000000180025095e-35
decision_type=2 2 2 2 2
left_child=-1 2 3 4 -2
right_child=1 -3 -4 -5 -6
leaf_value=-0.015647279504844357 -0.0045651192699904513 -0.015316713538950073 0.035870603935640365 -0.021825839929743053 0.031495198153612458
leaf_weight=4.6694721728563335 3.2058714888989979 4.0821196082979432 3.3972614184021941 4.4442006573081017 3.9331324696540797
leaf_count=37 28 39 28 23 24
internal_value=-6.26235e-05 0.00375491 0.00895186 0.00105681 0.0153018
internal_weight=23.7321 19.0626 14.9805 11.5832 7.139
internal_count=179 142 103 75 52
is_linear=0
shrinkage=0.05


Tree=66
num_leaves=6
num_cat=0
split_feature=7 117 68 58 103
split_gain=0.538025 0.911947 3.37971 0.672001 0.287128
threshold=0.05436527576918606 -0.031499999999999993 -1.0000000180025095e-35 1.0000000180025095e-35 1.0000000180025095e-35
decision_type=2 2 2 2 2
left_child=-1 4 3 -3 -2
right_child=1 2 -4 -5 -6
leaf_value=0.014943873257595825 0.00024366531180617431 0.015000241173943274 -0.065055007635431358 -0.014532125638416486 0.01874700691757011
leaf_weight=4.7703089863061932 4.8661663606762922 4.4302843101322678 2.4562620706856189 3.4080416429787874 3.6837569698691368
leaf_count=33 27 33 26 36 24
internal_value=-5.63577e-05 -0.00385352 -0.0138775 0.0021598 0.00821588
internal_weight=23.6148 18.8445 10.2946 7.83833 8.54992
internal_count=179 146 95 69 51
is_linear=0
shrinkage=0.05


Tree=67
num_leaves=6
num_cat=0
split_feature=90 4 6 115 38
split_gain=0.495632 0.734633 0.68008 1.07187 0.404219
threshold=-0.31499999999999995 0.13892857142857154 0.11975058919682451 0.045000000000000005 1.0000000180025095e-35
decision_type=2 2 2 2 2
left_child=-1 2 3 -2 -4
right_child=1 -3 4 -5 -6
leaf_value=-0.014757993247430247 -0.0034617854212088354 0.027878700392051932 -0.024076770612465652 0.034857723342982531 -0.001382476782991829
leaf_weight=4.6076937764883068 5.2661533653736168 2.6615702342241994 3.3266938477754575 2.7926927804946899 4.7834069654345512
leaf_count=37 39 25 35 18 25
internal_value=-5.93718e-05 0.00353728 -0.000469565 0.00981736 -0.0106915
internal_weight=23.4382 18.8305 16.1689 8.05885 8.1101
internal_count=179 142 117 57 60
is_linear=0
shrinkage=0.05


Tree=68
num_leaves=6
num_cat=0
split_feature=58 107 5 104 52
split_gain=0.481753 1.13658 1.13258 0.721524 0.529303
threshold=1.0000000180025095e-35 1.0000000180025095e-35 0.13541666666666655 -0.030499999999999996 0.4250000000000001
decision_type=2 2 2 2 2
left_child=3 2 4 -1 -2
right_child=1 -3 -4 -5 -6
leaf_value=0.02747031676467452 0.022014545888740612 -0.028806175356812083 -0.02059983474391346 -0.0038640560607221008 -0.0039323054083541236
leaf_weight=3.3906304910778999 5.3978235349059087 3.8015086445957431 3.6942067071795455 4.0098529532551774 3.0910550896078348
leaf_count=26 38 36 28 28 23
internal_value=-5.49031e-05 -0.00493796 0.00250968 0.0104922 0.0125665
internal_weight=23.3851 15.9846 12.1831 7.40048 8.48888
internal_count=179 125 89 54 61
is_linear=0
shrinkage=0.05


Tree=69
num_leaves=6
num_cat=0
split_feature=93 64 107 5 1
split_gain=0.454625 0.877398 1.22599 0.508876 0.0666914
threshold=1.0000000180025095e-35 1.0000000180025095e-35 1.0000000180025095e-35 0.11458333333333352 1.0000000180025095e-35
decision_type=2 2 2 2 2
left_child=1 2 3 4 -1
right_child=-2 -3 -4 -5 -6
leaf_value=0.0092736270717273511 -0.016276254342389631 0.021751184252489703 -0.027678383321026047 -0.0067921120084887933 0.019604255122976033
leaf_weight=2.9441591575741821 3.6415734738111487 4.7180407531559458 3.7596741728484622 4.8653463888913393 3.3284730091691017
leaf_count=25 27 35 36 38 18
internal_value=-5.16232e-05 0.00296041 -0.00299057 0.00534292 0.0147554
internal_weight=23.2573 19.6157 14.8977 11.138 6.27263
internal_count=179 152 117 81 43
is_linear=0
shrinkage=0.05


Tree=70
num_leaves=6
num_cat=0
split_feature=90 4 6 115 38
split_gain=0.452011 0.713011 0.610384 1.0605 0.338754
threshold=-0.31499999999999995 0.13892857142857154 0.11975058919682451 0.045000000000000005 1.0000000180025095e-35
decision_type=2 2 2 2 2
left_child=-1 2 3 -2 -4
right_child=1 -3 4 -5 -6
leaf_value=-0.014127660055765968 -0.0039995368197593617 0.027609889607269511 -0.022527451311376651 0.034492416111873904 -0.0016895175200935934
leaf_weight=4.5755475535988834 5.169688135385516 2.6165050789713851 3.303947336971758 2.736686073243618 4.7606127709150314
leaf_count=37 39 25 35 18 25
internal_value=-4.98407e-05 0.0034156 -0.000548127 0.00932394 -0.0102266
internal_weight=23.163 18.5874 15.9709 7.90637 8.06456
internal_count=179 142 117 57 60
is_linear=0
shrinkage=0.05


Tree=71
num_leaves=7
num_cat=0
split_feature=117 58 7 6 104 118
split_gain=0.441995 0.789906 1.013 1.45398 0.66859 0.58946
threshold=-0.053499999999999992 1.0000000180025095e-35 0.05436527576918606 0.13588465555016002 -0.030499999999999996 -1.0000000180025095e-35
decision_type=2 2 2 2 2 2
left_child=-1 4 -3 -4 -2 -5
right_child=1 2 3 5 -6 -7
leaf_value=0.015564804749742926 0.026372306193732542 0.0087578332701307507 -0.050119285402397074 0.009580619424757306 -0.0039814713966028576 -0.025332415531927052
leaf_weight=3.7906790822744396 3.3317021280527115 4.2121174782514572 2.8500115722417831 2.8401262313127553 3.982884608209134 2.1050590947270358
leaf_count=27 26 28 23 13 28 34
internal_value=-4.58398e-05 -0.00310842 -0.0109989 -0.0216745 0.00984429 -0.00528111
internal_weight=23.1126 19.3219 12.0073 7.7952 7.31459 4.94519
internal_count=179 152 98 70 54 47
is_linear=0
shrinkage=0.05


Tree=72
num_leaves=8
num_cat=0
split_feature=2 114 4 6 6 120 4
split_gain=0.438964 1.28903 0.427597 0.49013 0.716386 0.129545 0.0180787
threshold=1.0000000180025095e-35 1.0000000180025095e-35 0.13892857142857154 0.11975058919682451 0.13588465555016002 1.0000000180025095e-35 0.11750000000000001
decision_type=2 2 2 2 2 2 2
left_child=1 2 3 -1 -5 -6 -3
right_child=-2 6 -4 4 5 -7 -8
leaf_value=0.015024452061899136 0.015334888603373073 -0.03252845341005605 0.019840282277738156 -0.025061159273629442 0.011791060316063726 -0.0037029261568528103 -0.025456674268262841
leaf_weight=3.4506975635886254 3.8584591820836058 2.1665076278150077 3.0954100564122191 3.4315654784440976 2.7382151782512665 2.6592099107801914 1.5505755972117183
leaf_count=21 31 22 19 22 25 15 24
internal_value=-4.69423e-05 -0.00315555 0.00323245 -0.000953979 -0.00719894 0.00415746 -0.0295785
internal_weight=22.9506 19.0922 15.3751 12.2797 8.82899 5.39743 3.71708
internal_count=179 148 102 83 62 40 46
is_linear=0
shrinkage=0.05


Tree=73
num_leaves=6
num_cat=0
split_feature=90 104 2 14 31
split_gain=0.446641 0.551143 1.05666 1.3389 0.675255
threshold=-0.31499999999999995 1.0000000180025095e-35 1.0000000180025095e-35 1.0000000180025095e-35 1.0000000180025095e-35
decision_type=2 2 2 2 2
left_child=-1 2 3 4 -2
right_child=1 -3 -4 -5 -6
leaf_value=-0.014119030925601609 -0.0027873513094186608 -0.013251101171589797 0.033441692468025593 -0.020979621137169349 0.028588588418632311
leaf_weight=4.521979462355378 3.1272561103105598 3.9008795302361241 3.1682719364762297 4.3498145267367363 3.796678982675072
leaf_count=37 28 39 28 23 24
internal_value=-4.44818e-05 0.00342524 0.00792963 0.000759949 0.0144174
internal_weight=22.8649 18.3429 14.442 11.2737 6.92394
internal_count=179 142 103 75 52
is_linear=0
shrinkage=0.05


Tree=74
num_leaves=6
num_cat=0
split_feature=93 64 107 5 52
split_gain=0.432088 0.719419 1.08564 0.576788 0.426008
threshold=1.0000000180025095e-35 1.0000000180025095e-35 1.0000000180025095e-35 0.13541666666666655 0.4250000000000001
decision_type=2 2 2 2 2
left_child=1 2 3 4 -1
right_child=-2 -3 -4 -5 -6
leaf_value=0.020430329784038637 -0.016053800656687597 0.020200335293274981 -0.026234349356246158 -0.014921998958563318 -0.0030083547071333263
leaf_weight=5.2646118402481132 3.5543293487280598 4.5868653990328303 3.6229452807456246 2.6654167845845214 3.0685689877718687
leaf_count=38 27 35 36 20 23
internal_value=-3.93987e-05 0.00292391 -0.00249581 0.00532368 0.0117994
internal_weight=22.7627 19.2084 14.6215 10.9986 8.33318
internal_count=179 152 117 81 61
is_linear=0
shrinkage=0.05


Tree=75
num_leaves=7
num_cat=0
split_feature=117 7 6 115 119 12
split_gain=0.410383 0.611024 1.08391 0.977698 1.48715 0.389322
threshold=-0.053499999999999992 0.05436527576918606 0.13588465555016002 -1.0000000180025095e-35 -1.0000000180025095e-35 1.0000000180025095e-35
decision_type=2 2 2 2 2 2
left_child=-1 -2 -3 -4 -5 -6
right_child=1 2 3 4 5 -7
leaf_value=0.01509097510562217 0.012841039385482754 -0.025101683934002941 0.032522137728009728 0.011750422509048911 -0.057861413849431512 -0.017709057848901876
leaf_weight=3.7421075999736813 4.5907024368643787 5.6736901588737956 2.1201719194650677 4.1052811779081848 1.202222580090158 1.2126536294817924
leaf_count=27 33 38 10 30 26 15
internal_value=-3.72535e-05 -0.00303182 -0.00812246 0.00302697 -0.00656402 -0.0376985
internal_weight=22.6468 18.9047 14.314 8.64033 6.52016 2.41488
internal_count=179 152 119 81 71 41
is_linear=0
shrinkage=0.05


Tree=76
num_leaves=7
num_cat=0
split_feature=90 4 117 6 4 6
split_gain=0.388549 0.591389 0.498224 0.799391 0.496447 0.32618
threshold=-0.31499999999999995 0.13892857142857154 0.052000000000000011 0.11975058919682451 0.010153061224489801 0.13588465555016002
decision_type=2 2 2 2 2 2
left_child=-1 2 3 4 -2 -5
right_child=1 -3 -4 5 -6 -7
leaf_value=-0.013249409346960023 9.6231718997763407e-05 0.025653006917615406 -0.018224021257400993 -0.019806806299387959 0.029434326570396199 0.0027473296073733302
leaf_weight=4.4622948728501823 2.4592012539505976 2.528135845437645 3.1368466094136229 3.1007988564670086 3.4858792051672935 3.3187700435519218
leaf_count=37 20 25 19 20 28 30
internal_value=-3.96787e-05 0.0032297 -0.000427311 0.00408762 0.0172985 -0.00814683
internal_weight=22.4919 18.0296 15.5015 12.3646 5.94508 6.41957
internal_count=179 142 117 98 48 50
is_linear=0
shrinkage=0.05


Tree=77
num_leaves=7
num_cat=0
split_feature=117 58 7 6 93 118
split_gain=0.381615 0.700834 0.820124 1.22261 0.598327 0.529604
threshold=-0.053499999999999992 1.0000000180025095e-35 0.05436527576918606 0.13588465555016002 1.0000000180025095e-35 -1.0000000180025095e-35
decision_type=2 2 2 2 2 2
left_child=-1 4 -3 -4 -2 -5
right_child=1 2 3 5 -6 -7
leaf_value=0.014619058139199732 0.020366986339303603 0.0074204757895530854 -0.047551354143987493 0.0083754020563198885 -0.0098983023033228246 -0.025209536638345732
leaf_weight=3.7077332809567478 4.532007586210967 4.1286487132310867 2.6616360694169998 2.8651808500289953 2.5528860725462437 1.9884669333696328
leaf_count=27 35 28 23 13 19 34
internal_value=-3.66136e-05 -0.00293799 -0.0104826 -0.020318 0.00946155 -0.00538385
internal_weight=22.4366 18.7288 11.6439 7.51528 7.08489 4.85365
internal_count=179 152 98 70 54 47
is_linear=0
shrinkage=0.05


Tree=78
num_leaves=6
num_cat=0
split_feature=90 4 6 14 38
split_gain=0.359623 0.546135 0.462247 0.60001 0.302938
threshold=-0.31499999999999995 0.13892857142857154 0.11975058919682451 1.0000000180025095e-35 1.0000000180025095e-35
decision_type=2 2 2 2 2
left_child=-1 2 3 -2 -4
right_child=1 -3 4 -5 -6
leaf_value=-0.012803984237525809 0.027730075485163031 0.024684944444813783 -0.020804708488708395 -0.0019046643151174804 -0.00077975692849896038
leaf_weight=4.4222842901945141 2.6226149909198302 2.5218710880726567 3.184704789891839 4.897887796163559 4.640815295279026
leaf_count=37 23 25 35 34 25
internal_value=-3.81196e-05 0.00312142 -0.000422199 0.00842982 -0.00892919
internal_weight=22.2902 17.8679 15.346 7.5205 7.82552
internal_count=179 142 117 57 60
is_linear=0
shrinkage=0.05


Tree=79
num_leaves=7
num_cat=0
split_feature=117 58 7 6 93 48
split_gain=0.36352 0.661368 0.755513 1.1571 0.53881 0.118102
threshold=-0.053499999999999992 1.0000000180025095e-35 0.05436527576918606 0.13588465555016002 1.0000000180025095e-35 0.09500000000000007
decision_type=2 2 2 2 2 2
left_child=-1 4 -3 -4 -2 -5
right_child=1 2 3 5 -6 -7
leaf_value=0.014310141100462455 0.01958920154094744 0.0069726170322974472 -0.046683180753632279 -0.012118046606800348 -0.0092126428361970179 0.0036514543529350685
leaf_weight=3.6850324124097851 4.4998622275888929 4.1032125949859619 2.5962501838803291 2.7487377673387527 2.5406054686754942 2.0901030302047729
leaf_count=27 35 28 23 37 19 10
internal_value=-3.55803e-05 -0.002881 -0.0102501 -0.0197548 0.00919584 -0.00530652
internal_weight=22.2638 18.5788 11.5383 7.43509 7.04047 4.83884
internal_count=179 152 98 70 54 47
is_linear=0
shrinkage=0.05


Tree=80
num_leaves=7
num_cat=0
split_feature=119 119 4 12 102 76
split_gain=0.335563 0.707329 0.716347 1.73154 0.679587 0.0904452
threshold=2.6600000000000006 -1.0000000180025095e-35 0.027653061224489805 1.0000000180025095e-35 0.12500000000000003 1.0000000180025095e-35
decision_type=2 2 2 2 2 2
left_child=1 4 -3 -4 5 -1
right_child=-2 2 3 -5 -6 -7
leaf_value=0.012278922441182165 0.012724253414707854 0.0068610851040453421 -0.061538882581567915 -0.0031894738032134853 -0.0074765328725439869 0.025811407853894758
leaf_weight=2.4263200908899343 4.1780062280595294 2.81893640011549 1.9821544978767631 3.546104783192277 4.6431815624237061 2.5141407549381256
leaf_count=20 25 25 31 26 32 20
internal_value=-3.68902e-05 -0.00301032 -0.0136511 -0.0241106 0.00625766 0.0191654
internal_weight=22.1088 17.9308 8.3472 5.52826 9.58364 4.94046
internal_count=179 154 82 57 72 40
is_linear=0
shrinkage=0.05


Tree=81
num_leaves=7
num_cat=0
split_feature=2 114 44 6 89 6
split_gain=0.352033 1.12719 0.307794 0.417761 0.168476 0.0196832
threshold=1.0000000180025095e-35 1.0000000180025095e-35 1.0000000180025095e-35 0.11975058919682451 1.0000000180025095e-35 0.15063779421950252
decision_type=2 2 2 2 2 2
left_child=1 2 3 -1 -5 -3
right_child=-2 5 -4 4 -6 -7
leaf_value=0.014455963084312655 0.014292971712243288 -0.031553830958817586 0.016960287485705799 -0.0012370121526512493 -0.016042041640501794 -0.023992855668731158
leaf_weight=3.3131573125720086 3.5851657763123503 2.0045903399586673 3.1854803524911395 5.385827247053383 2.9874669946730137 1.5084908939898012
leaf_count=21 31 17 24 37 20 29
internal_value=-3.95398e-05 -0.00283445 0.00318278 -0.000572674 -0.00651923 -0.0283072
internal_weight=21.9702 18.385 14.8719 11.6865 8.37329 3.51308
internal_count=179 148 102 78 57 46
is_linear=0
shrinkage=0.05


Tree=82
num_leaves=6
num_cat=0
split_feature=64 107 5 104 52
split_gain=0.328078 0.713514 0.815538 0.529329 0.276211
threshold=1.0000000180025095e-35 1.0000000180025095e-35 0.13541666666666655 -0.030499999999999996 0.4250000000000001
decision_type=2 2 2 2 2
left_child=1 2 4 -2 -1
right_child=3 -3 -4 -5 -6
leaf_value=0.017620318039944658 0.024466491364218124 -0.024226164522396884 -0.018418729039485316 -0.0033913927324218471 -0.0014683676720052326
leaf_weight=5.0577540993690508 3.0676724389195442 3.4275952940806738 3.5009371004998675 3.8392204437404862 3.0306378845125437
leaf_count=38 26 36 28 28 23
internal_value=-3.72324e-05 -0.00418535 0.0017418 0.00898159 0.010468
internal_weight=21.9238 15.0169 11.5893 6.90689 8.08839
internal_count=179 125 89 54 61
is_linear=0
shrinkage=0.05


Tree=83
num_leaves=7
num_cat=0
split_feature=2 114 44 6 5 6
split_gain=0.31599 1.05171 0.294683 0.392124 0.160828 0.020707
threshold=1.0000000180025095e-35 1.0000000180025095e-35 1.0000000180025095e-35 0.11975058919682451 0.11458333333333352 0.15063779421950252
decision_type=2 2 2 2 2 2
left_child=1 2 3 -1 -5 -3
right_child=-2 5 -4 4 -6 -7
leaf_value=0.014066519431443911 0.013649541381779377 -0.030708208173177737 0.016660138328287333 0.00013314074119732369 -0.013782280594725999 -0.022897482655639408
leaf_weight=3.2931312322616639 3.535216085612773 2.0127175860106941 3.165124785155057 4.4868820905685407 3.8649880178272724 1.4670278150588272
leaf_count=21 31 17 24 25 32 29
internal_value=-3.48575e-05 -0.00267989 0.00313187 -0.000545132 -0.00630649 -0.0274153
internal_weight=21.8251 18.2899 14.8101 11.645 8.35187 3.47975
internal_count=179 148 102 78 57 46
is_linear=0
shrinkage=0.05


Tree=84
num_leaves=7
num_cat=0
split_feature=117 58 7 6 104 48
split_gain=0.312686 0.573564 0.677099 1.09136 0.488572 0.0906563
threshold=-0.053499999999999992 1.0000000180025095e-35 0.05436527576918606 0.13588465555016002 -0.030499999999999996 0.09500000000000007
decision_type=2 2 2 2 2 2
left_child=-1 4 -3 -4 -2 -5
right_child=1 2 3 5 -6 -7
leaf_value=0.013374816213634866 0.023698398559791157 0.0066940253891870933 -0.04537848878646368 -0.010740708601627458 -0.0031924450151031986 0.0032035834006441349
leaf_weight=3.625535815954211 3.0324039123952389 4.0758929960429668 2.5171982608735561 2.6617018710821867 3.8130934722721586 2.0736704021692276
leaf_count=27 26 28 23 37 28 10
internal_value=-3.24324e-05 -0.00270705 -0.00961189 -0.0187757 0.0087196 -0.00463435
internal_weight=21.7995 18.174 11.3285 7.25257 6.8455 4.73537
internal_count=179 152 98 70 54 47
is_linear=0
shrinkage=0.05


Tree=85
num_leaves=6
num_cat=0
split_feature=90 4 6 14 38
split_gain=0.319197 0.465674 0.387439 0.55725 0.286783
threshold=-0.31499999999999995 0.13892857142857154 0.11975058919682451 1.0000000180025095e-35 1.0000000180025095e-35
decision_type=2 2 2 2 2
left_child=-1 2 3 -2 -4
right_child=1 -3 4 -5 -6
leaf_value=-0.012222339329246231 0.027067874386573855 0.023290325646068782 -0.019904636952887828 -0.0020704290224695136 -0.00018032273258871421
leaf_weight=4.3036380633711842 2.5002388171851653 2.4294246882200232 3.0987435393035412 4.7735314816236496 4.5469854772090912
leaf_count=37 23 25 35 34 25
internal_value=-3.34755e-05 0.00299014 -0.000315453 0.00794538 -0.00817441
internal_weight=21.6526 17.3489 14.9195 7.27377 7.64573
internal_count=179 142 117 57 60
is_linear=0
shrinkage=0.05


Tree=86
num_leaves=7
num_cat=0
split_feature=2 114 162 6 0 6
split_gain=0.304518 0.959717 0.263126 0.471432 0.313289 0.00573699
threshold=1.0000000180025095e-35 1.0000000180025095e-35 1.0000000180025095e-35 0.13588465555016002 1.0000000180025095e-35 0.14377687632032102
decision_type=2 2 2 2 2 2
left_child=1 2 -1 -4 -5 -3
right_child=-2 5 3 4 -6 -7
leaf_value=-0.0080033380382367025 0.01351066533664033 -0.028156502547283403 -0.0072773910237850627 0.0038570678289176689 0.025086612044516135 -0.024060259582285498
leaf_weight=3.9929967299103781 3.4829598180949679 1.9137087017297738 3.7400094345211983 3.3913633227348328 3.564199510961771 1.5447562066838143
leaf_count=35 31 12 25 20 22 34
internal_value=-3.11549e-05 -0.00263024 0.0029492 0.00703814 0.0147356 -0.0263269
internal_weight=21.63 18.147 14.6886 10.6956 6.95556 3.45846
internal_count=179 148 102 67 42 46
is_linear=0
shrinkage=0.05


Tree=87
num_leaves=7
num_cat=0
split_feature=117 58 7 6 104 21
split_gain=0.295347 0.523921 0.667749 1.01248 0.413209 0.0959691
threshold=-0.053499999999999992 1.0000000180025095e-35 0.05436527576918606 0.13588465555016002 -0.030499999999999996 1.0000000180025095e-35
decision_type=2 2 2 2 2 2
left_child=-1 4 -3 -4 -2 -5
right_child=1 2 3 5 -6 -7
leaf_value=0.013033536109882183 0.02231009038201592 0.0068770368648202688 -0.044526587749114582 0.0021771098189381126 -0.0026091138007865483 -0.012127814249392518
leaf_weight=3.6044576019048717 2.9708609916269779 4.0754845254123211 2.4516610167920589 2.3775112628936812 3.7805152814835319 2.3132325736805752
leaf_count=27 26 28 23 10 28 37
internal_value=-2.87379e-05 -0.0026489 -0.00927226 -0.0184871 0.00835628 -0.00487734
internal_weight=21.5737 17.9693 11.2179 7.1424 6.75138 4.69074
internal_count=179 152 98 70 54 47
is_linear=0
shrinkage=0.05


Tree=88
num_leaves=6
num_cat=0
split_feature=90 4 6 6 38
split_gain=0.307991 0.389404 0.372545 0.313149 0.257878
threshold=-0.31499999999999995 0.13892857142857154 0.11975058919682451 0.10518912385072501 1.0000000180025095e-35
decision_type=2 2 2 2 2
left_child=-1 2 3 -2 -4
right_child=1 -3 4 -5 -6
leaf_value=-0.012048131470275327 -0.00060852240412931293 0.021669516757525827 -0.018994605712660404 0.020582019475344764 -0.00019530556881704989
leaf_weight=4.2692849300801781 4.2623355314135569 2.3930763378739348 3.0696519697085023 2.9501519724726677 4.4960473105311394
leaf_count=37 41 25 35 16 25
internal_value=-2.9788e-05 0.00295833 -7.16308e-05 0.00805913 -0.0078228
internal_weight=21.4405 17.1713 14.7782 7.21249 7.5657
internal_count=179 142 117 57 60
is_linear=0
shrinkage=0.05


Tree=89
num_leaves=7
num_cat=0
split_feature=2 114 44 5 104 101
split_gain=0.301061 0.867052 0.231143 0.370004 0.341997 0.00674449
threshold=1.0000000180025095e-35 1.0000000180025095e-35 1.0000000180025095e-35 0.13541666666666655 -0.0034999999999999996 1.0000000180025095e-35
decision_type=2 2 2 2 2 2
left_child=1 2 3 4 -1 -3
right_child=-2 5 -4 -5 -6 -7
leaf_value=-0.0053304297183827546 0.013513695572296078 -0.027409328229571619 0.014890002548085188 -0.013998050153498341 0.015457599990155167 -0.022980381772069704
leaf_weight=3.8141647726297405 3.4444214589893809 1.7248758245259515 3.075220823287963 3.5357354693114758 4.1109487041831043 1.7134981751441956
leaf_count=25 31 36 24 32 21 10
internal_value=-2.78614e-05 -0.00262281 0.00271813 -0.000547877 0.00545283 -0.0252022
internal_weight=21.4189 17.9744 14.5361 11.4608 7.92511 3.43837
internal_count=179 148 102 78 46 46
is_linear=0
shrinkage=0.05


Tree=90
num_leaves=7
num_cat=0
split_feature=117 58 7 6 93 21
split_gain=0.285126 0.519684 0.63664 0.948171 0.383153 0.0898526
threshold=-0.053499999999999992 1.0000000180025095e-35 0.05436527576918606 0.13588465555016002 1.0000000180025095e-35 1.0000000180025095e-35
decision_type=2 2 2 2 2 2
left_child=-1 4 -3 -4 -2 -5
right_child=1 2 3 5 -6 -7
leaf_value=0.012837369410685213 0.01733882409953047 0.0065254532718841103 -0.04390433397821155 0.0015986696673458804 -0.0076346822872926353 -0.012289823115044165
leaf_weight=3.5852776765823391 4.2912404276430616 4.0622551254928112 2.3932606615126133 2.3836792260408446 2.3919656705111265 2.2769888853654221
leaf_count=27 35 28 23 10 19 37
internal_value=-2.66937e-05 -0.00261786 -0.00924234 -0.0183228 0.00840063 -0.00518661
internal_weight=21.3847 17.7994 11.1162 7.05393 6.68321 4.66067
internal_count=179 152 98 70 54 47
is_linear=0
shrinkage=0.05


Tree=91
num_leaves=6
num_cat=0
split_feature=90 69 6 115 106
split_gain=0.290728 0.419796 0.481823 0.555702 0.403122
threshold=-0.31499999999999995 1.0000000180025095e-35 0.11975058919682451 0.045000000000000005 1.0000000180025095e-35
decision_type=2 2 2 2 2
left_child=-1 2 3 -2 -4
right_child=1 -3 4 -5 -6
leaf_value=-0.011757770545021896 -0.0021974652226557138 0.019281498666706157 0.0017096376886620822 0.028162516510231703 -0.021636930420977963
leaf_weight=4.2311150692403343 4.0424087718129176 3.1762241851538411 3.8255500597879291 2.4033144041895866 3.5785728320479393
leaf_count=37 36 25 28 18 35
internal_value=-2.79819e-05 0.00288696 -0.00087284 0.00912238 -0.00957426
internal_weight=21.2572 17.0261 13.8498 6.44572 7.40412
internal_count=179 142 117 54 63
is_linear=0
shrinkage=0.05


Tree=92
num_leaves=7
num_cat=0
split_feature=2 114 44 5 104 14
split_gain=0.274545 0.786385 0.22456 0.338808 0.315684 0.1697
threshold=1.0000000180025095e-35 1.0000000180025095e-35 1.0000000180025095e-35 0.13541666666666655 -0.0034999999999999996 1.0000000180025095e-35
decision_type=2 2 2 2 2 2
left_child=1 2 3 4 -1 -3
right_child=-2 5 -4 -5 -6 -7
leaf_value=-0.0052754405911639192 0.013026893099843227 -0.014450418110680817 0.014663514728983111 -0.013576452583738317 0.014764352362125789 -0.037000789915097275
leaf_weight=3.7864517793059376 3.3853439167141905 1.9479790218174449 3.0436010733246794 3.4977580979466438 4.0857094973325756 1.4592634439468384
leaf_count=25 31 38 24 32 21 8
internal_value=-2.60351e-05 -0.00250565 0.00260106 -0.000627928 0.00512536 -0.0241084
internal_weight=21.2061 17.8208 14.4135 11.3699 7.87216 3.40724
internal_count=179 148 102 78 46 46
is_linear=0
shrinkage=0.05


Tree=93
num_leaves=7
num_cat=0
split_feature=90 69 6 115 107 4
split_gain=0.270759 0.385598 0.453522 0.386248 0.314356 0.308437
threshold=-0.31499999999999995 1.0000000180025095e-35 0.11975058919682451 -1.0000000180025095e-35 1.0000000180025095e-35 0.052500000000000012
decision_type=2 2 2 2 2 2
left_child=-1 2 5 -4 -5 -2
right_child=1 -3 3 4 -6 -7
leaf_value=-0.011347317899116433 -0.0005711110399033647 0.01850174306702777 0.0048538688671773281 -0.0037264668548477702 -0.030446952403083358 0.021582028515120803
leaf_weight=4.2263713553547886 3.6762894913554209 3.1767115779221049 2.9208563119173085 1.9853317737579308 2.4702909355983138 2.7439686208963394
leaf_count=37 33 25 13 10 40 21
internal_value=-2.34006e-05 0.00279624 -0.000819963 -0.00927728 -0.0185409 0.00889697
internal_weight=21.1998 16.9734 13.7967 7.37648 4.45562 6.42026
internal_count=179 142 117 63 50 54
is_linear=0
shrinkage=0.05


Tree=94
num_leaves=7
num_cat=0
split_feature=2 114 44 162 102 14
split_gain=0.267245 0.698088 0.214002 0.310906 0.195699 0.142846
threshold=1.0000000180025095e-35 1.0000000180025095e-35 1.0000000180025095e-35 1.0000000180025095e-35 0.12500000000000003 1.0000000180025095e-35
decision_type=2 2 2 2 2 2
left_child=1 2 3 -1 -5 -3
right_child=-2 5 -4 4 -6 -7
leaf_value=-0.013087300501921676 0.012883588308735081 -0.013805700665363276 0.014149289452141653 0.012423422916123115 -0.0034272755788377338 -0.034433672948940362
leaf_weight=3.5402250885963493 3.3718047700822344 1.925520656630396 3.0352333933114997 4.0378572978079319 3.7611314281821251 1.4876666069030762
leaf_count=30 31 38 24 23 25 8
internal_value=-2.26878e-05 -0.00246919 0.00235752 -0.000798857 0.00477928 -0.0227966
internal_weight=21.1594 17.7876 14.3744 11.3392 7.79899 3.41319
internal_count=179 148 102 78 48 46
is_linear=0
shrinkage=0.05


Tree=95
num_leaves=7
num_cat=0
split_feature=117 58 7 6 93 21
split_gain=0.268823 0.468679 0.618674 0.89721 0.352776 0.0752521
threshold=-0.053499999999999992 1.0000000180025095e-35 0.05436527576918606 0.13588465555016002 1.0000000180025095e-35 1.0000000180025095e-35
decision_type=2 2 2 2 2 2
left_child=-1 4 -3 -4 -2 -5
right_child=1 2 3 5 -6 -7
leaf_value=0.012510607127780737 0.016660091320279274 0.0066023921930208037 -0.043292251802763221 0.00096988456122481202 -0.0075094679509625983 -0.011809322465356679
leaf_weight=3.559296045452359 4.2189216017723092 4.073647815734148 2.322546724230051 2.3904845118522688 2.3510675542056561 2.2235398758202747
leaf_count=27 35 28 23 10 19 37
internal_value=-2.03957e-05 -0.00255743 -0.00886381 -0.0179467 0.00801103 -0.00518853
internal_weight=21.1395 17.5802 11.0102 6.93657 6.56999 4.61402
internal_count=179 152 98 70 54 47
is_linear=0
shrinkage=0.05


Tree=96
num_leaves=6
num_cat=0
split_feature=90 69 6 106 4
split_gain=0.247494 0.376562 0.440728 0.352009 0.271545
threshold=-0.31499999999999995 1.0000000180025095e-35 0.11975058919682451 1.0000000180025095e-35 0.052500000000000012
decision_type=2 2 2 2 2
left_child=-1 2 4 -4 -2
right_child=1 -3 3 -5 -6
leaf_value=-0.010898133659149914 -0.00013213694828858973 0.018304663104115312 0.001215296982685695 -0.020725726158645881 0.020769145454210707
leaf_weight=4.1881869584322002 3.6645901687443274 3.1388974282890549 3.8301831446588039 3.4970310237258673 2.6980339661240578
leaf_count=37 33 25 28 35 21
internal_value=-2.18408e-05 0.00268495 -0.000896436 -0.00925641 0.00873093
internal_weight=21.0169 16.8287 13.6898 7.32721 6.36262
internal_count=179 142 117 63 54
is_linear=0
shrinkage=0.05


Tree=97
num_leaves=7
num_cat=0
split_feature=2 114 44 5 104 14
split_gain=0.24801 0.631435 0.208301 0.303881 0.286016 0.127494
threshold=1.0000000180025095e-35 1.0000000180025095e-35 1.0000000180025095e-35 0.13541666666666655 -0.0034999999999999996 1.0000000180025095e-35
decision_type=2 2 2 2 2 2
left_child=1 2 3 4 -1 -3
right_child=-2 5 -4 -5 -6 -7
leaf_value=-0.005353575477797334 0.01250927075021252 -0.013094020039918006 0.013939190556907852 -0.013273051979528118 0.013798810974892675 -0.032566266539670298
leaf_weight=3.7614881992340115 3.323527865111827 1.8984129149466744 3.0046557821333399 3.4354181475937366 4.0462089553475407 1.5086510181427002
leaf_count=25 31 38 24 32 21 8
internal_value=-2.0718e-05 -0.00237949 0.00224452 -0.000880808 0.00457183 -0.0217163
internal_weight=20.9784 17.6548 14.2478 11.2431 7.8077 3.40706
internal_count=179 148 102 78 46 46
is_linear=0
shrinkage=0.05


Tree=98
num_leaves=7
num_cat=0
split_feature=117 58 7 6 104 48
split_gain=0.247826 0.446315 0.589212 0.85041 0.337944 0.0649546
threshold=-0.053499999999999992 1.0000000180025095e-35 0.05436527576918606 0.13588465555016002 -0.030499999999999996 0.09500000000000007
decision_type=2 2 2 2 2 2
left_child=-1 4 -3 -4 -2 -5
right_child=1 2 3 5 -6 -7
leaf_value=0.012052282096760493 0.020932766893334585 0.0064402433562147608 -0.042635183438186605 -0.010496635742043348 -0.0020573501466088287 0.0014787039213705862
leaf_weight=3.5353508107364204 2.818978376686573 4.0661202482879162 2.2673830687999725 2.5652559064328671 3.6919043380767116 2.0271340012550354
leaf_count=27 26 28 23 37 28 10
internal_value=-1.85957e-05 -0.002466 -0.00864117 -0.0175807 0.00789654 -0.00521058
internal_weight=20.9721 17.4368 10.9259 6.85977 6.51088 4.59239
internal_count=179 152 98 70 54 47
is_linear=0
shrinkage=0.05


Tree=99
num_leaves=7
num_cat=0
split_feature=90 69 107 59 6 1
split_gain=0.24514 0.344396 0.403362 0.466762 0.295323 0.0744029
threshold=-0.31499999999999995 1.0000000180025095e-35 1.0000000180025095e-35 -1.0000000180025095e-35 0.11975058919682451 1.0000000180025095e-35
decision_type=2 2 2 2 2 2
left_child=-1 2 4 -4 -2 -5
right_child=1 -3 3 5 -6 -7
leaf_value=-0.010868809747729011 0.015955193178668389 0.017692209804059025 0.0073972771258098598 -0.030739450123083868 -0.0028680727480318506 -0.015534542156908922
leaf_weight=4.166172310709956 3.9619285017251986 3.1118119675666085 1.9855248071253342 1.6716570788994378 4.395623505115509 1.5511190332472324
leaf_count=37 38 25 18 26 20 15
internal_value=-1.98813e-05 0.00269024 -0.000750996 -0.0116726 0.00605517 -0.0234213
internal_weight=20.8438 16.6777 13.5659 5.2083 8.35755 3.22278
internal_count=179 142 117 59 58 41
is_linear=0
shrinkage=0.05


end of trees

feature_importances:
nt_dist=74
ecto_nt_dist=41
p058_flex=41
p059_flex=36
same_SL=28
p059_same=26
aa_dist=25
p028_s_nonpolar_v_nonpolar=20
p028_same=19
p032_s_polar_v_polar=19
p058_surf=18
p032_btprop=15
p058_same=15
ecto_aa_dist=14
p059_btprop=14
p059_pI=13
p057_btprop=12
p058_pI=12
nogly_032=11
p033_same=11
p057_hydro=11
p058_btprop=11
p029_same=9
p033_surf=9
gly_both_032=8
p032_pI=7
gly_s_033=6
p029_s_nonpolar_v_nonpolar=6
p059_s_basic_v_basic=5
nogly_057=4
p034_flex=4
p033_flex=3
p034_same=3
p059_hydro=3
p059_surf=3
same_L=2
gly_s_032=2
p027_s_nonpolar_v_nonpolar=2
p033_charge=2
p047_btprop=2
p057_same=2
p058_charge=2
p104_same=2
diff_L=1
gly_v_032=1
nogly_033=1
gly_s_057=1
p033_btprop=1
p034_btprop=1
p047_same=1
p057_flex=1
p057_pI=1
p059_s_polar_v_basic=1

parameters:
[boosting: gbdt]
[objective: binary]
[metric: binary_logloss]
[tree_learner: serial]
[device_type: cpu]
[data_sample_strategy: bagging]
[data: ]
[valid: ]
[num_iterations: 100]
[learning_rate: 0.05]
[num_leaves: 31]
[num_threads: 0]
[seed: 0]
[deterministic: 0]
[force_col_wise: 0]
[force_row_wise: 0]
[histogram_pool_size: -1]
[max_depth: -1]
[min_data_in_leaf: 20]
[min_sum_hessian_in_leaf: 0.001]
[bagging_fraction: 1]
[pos_bagging_fraction: 1]
[neg_bagging_fraction: 1]
[bagging_freq: 0]
[bagging_seed: 3]
[bagging_by_query: 0]
[feature_fraction: 1]
[feature_fraction_bynode: 1]
[feature_fraction_seed: 2]
[extra_trees: 0]
[extra_seed: 6]
[early_stopping_round: 10]
[early_stopping_min_delta: 0]
[first_metric_only: 0]
[max_delta_step: 0]
[lambda_l1: 0]
[lambda_l2: 0]
[linear_lambda: 0]
[min_gain_to_split: 0]
[drop_rate: 0.1]
[max_drop: 50]
[skip_drop: 0.5]
[xgboost_dart_mode: 0]
[uniform_drop: 0]
[drop_seed: 4]
[top_rate: 0.2]
[other_rate: 0.1]
[min_data_per_group: 100]
[max_cat_threshold: 32]
[cat_l2: 10]
[cat_smooth: 10]
[max_cat_to_onehot: 4]
[top_k: 20]
[monotone_constraints: ]
[monotone_constraints_method: basic]
[monotone_penalty: 0]
[feature_contri: ]
[forcedsplits_filename: ]
[refit_decay_rate: 0.9]
[cegb_tradeoff: 1]
[cegb_penalty_split: 0]
[cegb_penalty_feature_lazy: ]
[cegb_penalty_feature_coupled: ]
[path_smooth: 0]
[interaction_constraints: ]
[verbosity: -1]
[saved_feature_importance_type: 0]
[use_quantized_grad: 0]
[num_grad_quant_bins: 4]
[quant_train_renew_leaf: 0]
[stochastic_rounding: 1]
[linear_tree: 0]
[max_bin: 255]
[max_bin_by_feature: ]
[min_data_in_bin: 3]
[bin_construct_sample_cnt: 200000]
[data_random_seed: 1]
[is_enable_sparse: 1]
[enable_bundle: 1]
[use_missing: 1]
[zero_as_missing: 0]
[feature_pre_filter: 1]
[pre_partition: 0]
[two_round: 0]
[header: 0]
[label_column: ]
[weight_column: ]
[group_column: ]
[ignore_column: ]
[categorical_feature: ]
[forcedbins_filename: ]
[precise_float_parser: 0]
[parser_config_file: ]
[objective_seed: 5]
[num_class: 1]
[is_unbalance: 0]
[scale_pos_weight: 1]
[sigmoid: 1]
[boost_from_average: 1]
[reg_sqrt: 0]
[alpha: 0.9]
[fair_c: 1]
[poisson_max_delta_step: 0.7]
[tweedie_variance_power: 1.5]
[lambdarank_truncation_level: 30]
[lambdarank_norm: 1]
[label_gain: ]
[lambdarank_position_bias_regularization: 0]
[eval_at: ]
[multi_error_top_k: 1]
[auc_mu_weights: ]
[num_machines: 1]
[local_listen_port: 12400]
[time_out: 120]
[machine_list_filename: ]
[machines: ]
[gpu_platform_id: -1]
[gpu_device_id: -1]
[gpu_use_dp: 0]
[num_gpu: 1]

end of parameters
